{"learner":{"attributes":{"best_iteration":"9","best_ntree_limit":"10","scikit_learn":"{\"n_estimators\": 10, \"objective\": \"reg:linear\", \"max_depth\": null, \"max_leaves\": null, \"max_bin\": null, \"grow_policy\": null, \"learning_rate\": null, \"verbosity\": null, \"booster\": null, \"tree_method\": null, \"gamma\": null, \"min_child_weight\": null, \"max_delta_step\": null, \"subsample\": null, \"sampling_method\": null, \"colsample_bytree\": null, \"colsample_bylevel\": null, \"colsample_bynode\": null, \"reg_alpha\": null, \"reg_lambda\": null, \"scale_pos_weight\": null, \"base_score\": null, \"missing\": NaN, \"num_parallel_tree\": null, \"random_state\": null, \"n_jobs\": null, \"monotone_constraints\": null, \"interaction_constraints\": null, \"importance_type\": null, \"gpu_id\": null, \"validate_parameters\": null, \"predictor\": null, \"enable_categorical\": false, \"feature_types\": null, \"max_cat_to_onehot\": null, \"max_cat_threshold\": null, \"eval_metric\": null, \"early_stopping_rounds\": null, \"callbacks\": null, \"kwargs\": {\"seed\": 20}, \"_estimator_type\": \"regressor\"}"},"feature_names":[],"feature_types":[],"gradient_booster":{"model":{"gbtree_model_param":{"num_parallel_tree":"1","num_trees":"10","size_leaf_vector":"0"},"tree_info":[0,0,0,0,0,0,0,0,0,0],"trees":[{"base_weights":[3.6858184E5,2.8309666E5,7.12902E5,2.808472E5,7.3914244E5,8.4566975E5,5.0692153E5,3.4615084E5,2.657376E5,8.052675E5,1.5841814E6,4.465587E5,6.50953E5,6.567037E5,3.1660756E5,2.5243067E5,3.5492125E5,9.3747875E5,5.336338E5,8.7499956E5,2.2601995E6,4.811615E5,3.2108472E5,5.2048522E5,1.0859995E6,8.558841E5,3.8619953E5,2.5012692E5,3.3535238E5,2.7093666E5,2.2564208E5,2.3199953E5,3.7071156E5,1.1839745E6,8.752421E5,3.9885366E5,7.4562706E5,1.9749975E5,9.5499956E5,1.24999664E5,4.882377E5,1.06249625E5,3.4351203E5,6.041534E5,2.5089955E5,4.8624962E5,1.3048329E6,5.1541625E5,1.00424956E6,4.68044E5,1.05499625E5,2.5381755E5,1.249975E4,3.3688875E5,1.249975E4,2.688694E5,5.349996E5,2.2155144E5,4.948329E5,3.532995E5,5.034281E5,1.5206149E6,8.1328794E5,7.625019E5,1.0956251E6,2.7503797E5,5.2147775E5,9.8472275E5,3.9399953E5,1.499975E4,1.7249975E5,2.7106672E5,5.0163978E5,1.7249975E5,2.6666334E4,3.7877847E5,1.7458292E5,2.157996E5,6.6495406E5,7.59996E4,3.548329E5],"categories":[],"categories_nodes":[],"categories_segments":[],"categories_sizes":[],"default_left":[1,1,1,1,0,1,1,1,1,1,1,1,1,1,1,1,1,1,1,1,0,1,1,1,1,1,1,1,1,1,1,0,1,1,1,1,1,0,0,1,1,1,1,1,1,0,0,0,0,0,0,0,0,0,0,0,0,0,0,0,0,0,0,0,0,0,0,0,0,0,0,0,0,0,0,0,0,0,0,0,0],"id":0,"left_children":[1,3,5,7,-1,9,11,13,15,17,19,21,23,25,27,29,31,33,35,37,-1,39,41,43,45,47,49,51,53,55,57,-1,59,61,63,65,67,-1,-1,69,71,73,75,77,79,-1,-1,-1,-1,-1,-1,-1,-1,-1,-1,-1,-1,-1,-1,-1,-1,-1,-1,-1,-1,-1,-1,-1,-1,-1,-1,-1,-1,-1,-1,-1,-1,-1,-1,-1,-1],"loss_changes":[5.672407E13,1.3835247E12,1.0072789E13,1.432489E12,0E0,5.646607E12,1.0395163E12,2.4252347E12,1.4045298E12,7.472438E12,3.2959428E12,3.2744092E11,1.8754138E12,9.625571E11,2.4510883E11,4.8369553E11,2.2649032E11,1.2342075E12,1.8455399E12,1.907884E11,0E0,1.5319276E11,9.359275E10,6.378687E11,5.4673382E11,1.3907054E11,2.2630616E11,5.1200918E10,9.648367E10,2.0825558E11,3.9139777E11,0E0,1.4797295E11,2.1325771E12,2.195802E12,5.853476E11,1.9660538E12,0E0,0E0,1.3087564E10,1.0559999E11,1.6489677E10,7.685223E10,4.7042055E11,1.5481222E11,0E0,0E0,0E0,0E0,0E0,0E0,0E0,0E0,0E0,0E0,0E0,0E0,0E0,0E0,0E0,0E0,0E0,0E0,0E0,0E0,0E0,0E0,0E0,0E0,0E0,0E0,0E0,0E0,0E0,0E0,0E0,0E0,0E0,0E0,0E0,0E0],"parents":[2147483647,0,0,1,1,2,2,3,3,5,5,6,6,7,7,8,8,9,9,10,10,11,11,12,12,13,13,14,14,15,15,16,16,17,17,18,18,19,19,21,21,22,22,23,23,24,24,25,25,26,26,27,27,28,28,29,29,30,30,32,32,33,33,34,34,35,35,36,36,39,39,40,40,41,41,42,42,43,43,44,44],"right_children":[2,4,6,8,-1,10,12,14,16,18,20,22,24,26,28,30,32,34,36,38,-1,40,42,44,46,48,50,52,54,56,58,-1,60,62,64,66,68,-1,-1,70,72,74,76,78,80,-1,-1,-1,-1,-1,-1,-1,-1,-1,-1,-1,-1,-1,-1,-1,-1,-1,-1,-1,-1,-1,-1,-1,-1,-1,-1,-1,-1,-1,-1,-1,-1,-1,-1,-1,-1],"split_conditions":[1.5E0,3.955E2,1.55E1,1.105E2,2.2174273E5,7.5E0,2.5E0,5E-1,1.5E0,2.27E2,5E-1,2.455E2,2.0145E3,7.4E1,1.5E0,2.605E2,1.5E0,9.25E1,2.5E0,1.5E2,6.780599E5,1.5E0,2.54E2,2.5E0,4.75E1,5E1,5E-1,2.5E1,9.45E1,3.5E0,4.5E1,6.959986E4,5.05E1,3.5E0,1.785E2,5E-1,2.5E1,5.9249926E4,2.8649988E5,5E-1,2.4E1,1.95E1,5.69E2,1.28E2,3.9E1,1.4587489E5,3.9144988E5,1.5462488E5,3.0127488E5,1.404132E5,3.1649889E4,7.6145266E4,3.749925E3,1.0106663E5,3.749925E3,8.066083E4,1.6049989E5,6.646544E4,1.4844988E5,1.0598985E5,1.5102844E5,4.5618447E5,2.4398639E5,2.2875058E5,3.2868756E5,8.251139E4,1.5644333E5,2.9541684E5,1.1819987E5,4.4999253E3,5.1749926E4,8.1320016E4,1.5049194E5,5.1749926E4,7.9999004E3,1.1363355E5,5.237488E4,6.473988E4,1.9948623E5,2.279988E4,1.06449875E5],"split_indices":[7,3,4,11,0,7,10,0,10,11,8,11,6,11,0,11,0,11,7,3,0,0,11,8,4,11,1,2,4,0,3,0,4,2,11,1,3,0,0,1,4,2,11,11,3,0,0,0,0,0,0,0,0,0,0,0,0,0,0,0,0,0,0,0,0,0,0,0,0,0,0,0,0,0,0,0,0,0,0,0,0],"split_type":[0,0,0,0,0,0,0,0,0,0,0,0,0,0,0,0,0,0,0,0,0,0,0,0,0,0,0,0,0,0,0,0,0,0,0,0,0,0,0,0,0,0,0,0,0,0,0,0,0,0,0,0,0,0,0,0,0,0,0,0,0,0,0,0,0,0,0,0,0,0,0,0,0,0,0,0,0,0,0,0,0],"sum_hessian":[1.933E3,1.55E3,3.83E2,1.544E3,6E0,2.31E2,1.52E2,2.86E2,1.258E3,2.21E2,1E1,1.1E2,4.2E1,2.3E1,2.63E2,1.098E3,1.6E2,1.47E2,7.4E1,6E0,4E0,8.4E1,2.6E1,3.4E1,8E0,1.2E1,1.1E1,6.1E1,2.02E2,6.44E2,4.54E2,2E1,1.4E2,2.6E1,1.21E2,4.7E1,2.7E1,1E0,5E0,2E0,8.2E1,3E0,2.3E1,2.5E1,9E0,3E0,5E0,5E0,7E0,8E0,3E0,6E1,1E0,2.01E2,1E0,6.41E2,3E0,4.49E2,5E0,1.27E2,1.3E1,1.2E1,1.4E1,8.3E1,3.8E1,2.5E1,2.2E1,1.5E1,1.2E1,1E0,1E0,6E0,7.6E1,1E0,2E0,1.8E1,5E0,4E0,2.1E1,4E0,5E0],"tree_param":{"num_deleted":"0","num_feature":"12","num_nodes":"81","size_leaf_vector":"0"}},{"base_weights":[2.6121086E5,1.9933922E5,5.1043403E5,1.9644884E5,4.345896E5,6.046153E5,3.6428703E5,2.3085575E5,1.800302E5,4.4727078E5,1.0950483E5,5.722917E5,1.2020005E6,3.092389E5,4.7826234E5,3.7238028E5,2.195365E5,1.4239744E5,1.9531838E5,6.6473244E5,3.822446E5,6.618925E5,1.7177516E6,2.0726127E5,3.4495434E5,3.8892266E5,8.763454E5,6.341881E5,2.082115E5,2.0808952E5,2.7899978E5,1.9504052E5,1.21837016E5,1.8967856E5,2.8670656E5,6.291289E5,1.0509654E6,3.2035003E5,6.527918E5,2.4233308E5,7.812497E5,1.9292046E6,4.359698E5,5.9975375E5,1.7304588E5,2.2997011E5,3.786566E5,4.126021E5,6.673722E4,3.7967172E5,9.786247E5,1.4243731E5,6.6329756E5,2.8230678E5,8.365699E4,2.2443319E5,1.8691445E5,2.4007511E5,3.802738E5,3.4224456E5,1.3728675E5,1.4223323E5,1.0980133E5,1.8755148E5,4.474054E5,8.358817E4,3.0640616E5,5.896033E5,1.0318693E6,1.4053355E6,7.948395E4,2.5929802E5,4.9842988E5,2.646544E5,9.4767325E5,3.442498E5,1.9249812E4,1.6787478E5,8.9262475E5,2.104278E5,8.097746E4,4.8364428E5,3.010629E5,4.3044806E5,6.0916414E4,1.0998096E3,8.824975E4],"categories":[],"categories_nodes":[],"categories_segments":[],"categories_sizes":[],"default_left":[1,1,1,1,1,1,1,1,1,0,0,1,1,1,1,1,1,1,1,1,1,1,1,1,1,1,1,1,1,1,1,1,1,1,1,1,1,1,1,1,1,0,0,0,1,0,1,1,1,0,0,0,0,0,0,0,0,0,0,0,0,0,0,0,0,0,0,0,0,0,0,0,0,0,0,0,0,0,0,0,0,0,0,0,0,0,0],"id":1,"left_children":[1,3,5,7,9,11,13,15,17,-1,-1,19,21,23,25,27,29,31,33,35,37,39,41,43,45,47,49,51,53,55,57,59,61,63,65,67,69,71,73,75,77,-1,-1,-1,79,-1,81,83,85,-1,-1,-1,-1,-1,-1,-1,-1,-1,-1,-1,-1,-1,-1,-1,-1,-1,-1,-1,-1,-1,-1,-1,-1,-1,-1,-1,-1,-1,-1,-1,-1,-1,-1,-1,-1,-1,-1],"loss_changes":[2.9720234E13,9.692533E11,5.065243E12,8.250154E11,2.5225855E10,3.7919444E12,8.120445E11,7.064089E11,5.7226245E11,0E0,0E0,3.646033E12,1.9272061E12,3.145749E11,1.3662704E12,1.3722777E12,2.5369457E11,3.0635826E11,3.265077E11,1.3739953E12,1.046785E12,1.6121935E11,5.1410842E11,2.990936E11,2.1131218E11,2.8526038E11,3.483946E10,9.161146E10,1.886478E11,9.232921E10,1.8859216E11,6.671478E11,3.8879625E10,2.9928246E11,1.3844375E11,1.588362E12,3.6752023E12,5.5570176E11,1.2371026E12,6.1581E10,1.91724E11,0E0,0E0,0E0,8.276915E10,0E0,3.2688308E11,2.1227268E11,5.5510487E9,0E0,0E0,0E0,0E0,0E0,0E0,0E0,0E0,0E0,0E0,0E0,0E0,0E0,0E0,0E0,0E0,0E0,0E0,0E0,0E0,0E0,0E0,0E0,0E0,0E0,0E0,0E0,0E0,0E0,0E0,0E0,0E0,0E0,0E0,0E0,0E0,0E0,0E0],"parents":[2147483647,0,0,1,1,2,2,3,3,4,4,5,5,6,6,7,7,8,8,11,11,12,12,13,13,14,14,15,15,16,16,17,17,18,18,19,19,20,20,21,21,22,22,23,23,24,24,25,25,26,26,27,27,28,28,29,29,30,30,31,31,32,32,33,33,34,34,35,35,36,36,37,37,38,38,39,39,40,40,44,44,46,46,47,47,48,48],"right_children":[2,4,6,8,10,12,14,16,18,-1,-1,20,22,24,26,28,30,32,34,36,38,40,42,44,46,48,50,52,54,56,58,60,62,64,66,68,70,72,74,76,78,-1,-1,-1,80,-1,82,84,86,-1,-1,-1,-1,-1,-1,-1,-1,-1,-1,-1,-1,-1,-1,-1,-1,-1,-1,-1,-1,-1,-1,-1,-1,-1,-1,-1,-1,-1,-1,-1,-1,-1,-1,-1,-1,-1,-1],"split_conditions":[1.5E0,4.5E0,1.55E1,1.485E2,1.75E1,7.5E0,4.55E1,5E-1,1.5E0,1.3418123E5,3.285145E4,2.27E2,5E-1,2.5E0,2.0145E3,7.4E1,2.5E0,5E-1,4.75E1,2.18E2,3.5E0,4E0,1.35E1,5E-1,1.5E0,2.5E0,2.5E0,1.8E1,5E-1,1.65E1,1.405E2,5E-1,2.225E2,3.685E2,5E-1,4.45E1,3.25E1,4.54E2,9.515E2,5E-1,5E-1,5.7876144E5,1.30790945E5,1.7992612E5,3.35E1,6.899104E4,3.25E1,4.85E2,3.5E0,1.1390152E5,2.935874E5,4.2731195E4,1.9898928E5,8.469204E4,2.50971E4,6.732996E4,5.607434E4,7.202254E4,1.1408215E5,1.02673375E5,4.1186027E4,4.2669973E4,3.29404E4,5.626545E4,1.3422162E5,2.5076453E4,9.192185E4,1.76881E5,3.095608E5,4.2160066E5,2.3845188E4,7.778941E4,1.4952897E5,7.939633E4,2.84302E5,1.03274945E5,5.774944E3,5.0362438E4,2.6778744E5,6.312834E4,2.4293238E4,1.450933E5,9.0318875E4,1.2913442E5,1.8274926E4,3.2994287E2,2.6474926E4],"split_indices":[7,0,4,11,2,7,4,0,0,0,0,11,8,0,6,11,0,10,4,11,10,0,0,10,10,8,0,11,10,4,11,7,11,3,10,2,3,11,6,1,1,0,0,0,4,0,4,11,0,0,0,0,0,0,0,0,0,0,0,0,0,0,0,0,0,0,0,0,0,0,0,0,0,0,0,0,0,0,0,0,0,0,0,0,0,0,0],"split_type":[0,0,0,0,0,0,0,0,0,0,0,0,0,0,0,0,0,0,0,0,0,0,0,0,0,0,0,0,0,0,0,0,0,0,0,0,0,0,0,0,0,0,0,0,0,0,0,0,0,0,0,0,0,0,0,0,0,0,0,0,0,0,0,0,0,0,0,0,0,0,0,0,0,0,0,0,0,0,0,0,0,0,0,0,0,0,0],"sum_hessian":[1.933E3,1.55E3,3.83E2,1.533E3,1.7E1,2.31E2,1.52E2,4.91E2,1.042E3,1.6E1,1E0,2.21E2,1E1,1.05E2,4.7E1,3.4E1,4.57E2,3.04E2,7.38E2,1.47E2,7.4E1,6E0,4E0,2.9E1,7.6E1,4E1,7E0,1.2E1,2.2E1,3.87E2,7E1,8.3E1,2.21E2,6.98E2,4E1,1.37E2,1E1,6.2E1,1.2E1,2E0,4E0,3E0,1E0,1E0,2.8E1,1.9E1,5.7E1,3.7E1,3E0,2E0,5E0,1E0,1.1E1,1.3E1,9E0,2.13E2,1.74E2,5.3E1,1.7E1,2.2E1,6.1E1,7.8E1,1.43E2,6.94E2,4E0,4E0,3.6E1,1.27E2,1E1,7E0,3E0,4.8E1,1.4E1,6E0,6E0,1E0,1E0,1E0,3E0,1.9E1,9E0,2.2E1,3.5E1,3.5E1,2E0,1E0,2E0],"tree_param":{"num_deleted":"0","num_feature":"12","num_nodes":"87","size_leaf_vector":"0"}},{"base_weights":[1.8551984E5,1.404111E5,3.672338E5,1.3898984E5,4.3404166E5,3.3005406E5,6.544021E5,1.3175347E5,1.8699567E5,3.1232162E5,8.352461E5,9.35377E5,4.7047353E5,1.7347219E5,1.2221935E5,1.7452923E5,2.5734206E5,2.3732256E5,3.974678E5,9.0760194E5,5.5844062E4,1.4926422E6,3.3609938E5,2.2297011E5,7.389029E5,3.5902288E5,1.5290912E5,1.16050016E5,1.6018277E5,1.6490098E5,2.899665E5,2.8391384E5,7.832909E4,3.7385453E5,2.0033652E5,5.6972475E5,2.5463995E5,9.9499694E5,6.052354E4,1.6495834E6,1.9702684E5,4.241033E5,-1.8396603E5,1.19853234E5,3.74856E5,9.0334644E5,1.4306831E5,5.1186262E5,2.3319484E5,1.1539821E5,1.661577E5,1.2346938E5,8.276231E4,1.5273472E5,2.915805E5,1.5779566E5,2.1622317E5,3.363881E5,3.8572355E4,2.9777203E5,-1.7412383E4,9.739906E4,1.0246094E3,4.1895356E5,1.4299594E3,1.5600216E5,3.69237E5,1.0745252E6,4.554604E5,1.23388055E5,3.422954E5,1.8660702E6,7.3891094E5,2.0552962E5,7.198829E5,2.4593014E5,6.4510566E4,4.7335862E5,1.18567195E5,1.9950511E5,5.7754355E4],"categories":[],"categories_nodes":[],"categories_segments":[],"categories_sizes":[],"default_left":[1,1,1,1,0,1,1,1,1,1,1,1,1,1,1,1,1,1,1,1,0,1,1,1,1,1,1,1,1,1,1,1,1,1,1,1,1,0,0,1,0,1,0,1,1,0,1,0,0,0,0,0,0,0,0,0,0,0,0,0,0,0,0,0,0,0,0,0,0,0,0,0,0,0,0,0,0,0,0,0,0],"id":2,"left_children":[1,3,5,7,-1,9,11,13,15,17,19,21,23,25,27,29,31,33,35,37,-1,39,41,43,45,47,49,51,53,55,57,59,61,63,65,67,69,-1,-1,71,-1,73,-1,75,77,-1,79,-1,-1,-1,-1,-1,-1,-1,-1,-1,-1,-1,-1,-1,-1,-1,-1,-1,-1,-1,-1,-1,-1,-1,-1,-1,-1,-1,-1,-1,-1,-1,-1,-1,-1],"loss_changes":[1.5801231E13,5.869383E11,3.883917E12,5.120763E11,0E0,2.8028646E12,1.7821388E12,5.1417134E11,1.3048008E11,2.0257859E12,5.6965254E11,4.84163E12,1.6954881E12,8.913441E11,2.388069E11,1.4446703E11,1.1094865E11,8.290136E11,3.6437995E12,6.800833E11,0E0,1.3016708E12,4.8993095E11,2.0566429E11,1.144515E12,3.4219255E11,9.264274E10,2.2415933E11,1.0324253E11,2.4955585E10,1.2706611E11,1.0540509E11,7.271174E9,6.208524E11,1.013196E12,3.4905648E12,9.4719024E11,0E0,0E0,1.1806966E9,0E0,3.692398E11,0E0,6.088668E10,9.534584E10,0E0,7.737098E9,0E0,0E0,0E0,0E0,0E0,0E0,0E0,0E0,0E0,0E0,0E0,0E0,0E0,0E0,0E0,0E0,0E0,0E0,0E0,0E0,0E0,0E0,0E0,0E0,0E0,0E0,0E0,0E0,0E0,0E0,0E0,0E0,0E0,0E0],"parents":[2147483647,0,0,1,1,2,2,3,3,5,5,6,6,7,7,8,8,9,9,10,10,11,11,12,12,13,13,14,14,15,15,16,16,17,17,18,18,19,19,21,21,22,22,23,23,24,24,25,25,26,26,27,27,28,28,29,29,30,30,31,31,32,32,33,33,34,34,35,35,36,36,39,39,41,41,43,43,44,44,46,46],"right_children":[2,4,6,8,-1,10,12,14,16,18,20,22,24,26,28,30,32,34,36,38,-1,40,42,44,46,48,50,52,54,56,58,60,62,64,66,68,70,-1,-1,72,-1,74,-1,76,78,-1,80,-1,-1,-1,-1,-1,-1,-1,-1,-1,-1,-1,-1,-1,-1,-1,-1,-1,-1,-1,-1,-1,-1,-1,-1,-1,-1,-1,-1,-1,-1,-1,-1,-1,-1],"split_conditions":[1.5E0,3.955E2,3.5E0,1.5E0,1.302125E5,7.05E1,1.25E2,1.105E2,4.65E1,1.9775E3,3.5E0,4.5E0,9.5E0,5E-1,2.5E0,4.7E1,1.5E0,5E-1,2E0,3.915E2,1.6753219E4,6.525E2,1.986E3,1.9055E3,1.025E2,6.75E1,1.5E0,5E-1,4.5E0,1.5E0,2.0145E3,1.04E2,3.5E0,3.37E2,2.5E0,9.4E1,1.5E0,2.984991E5,1.8157062E4,9.515E2,5.9108055E4,1.9295E3,-5.5189812E4,1.38E2,1.959E3,2.7100394E5,1.85E1,1.535588E5,6.995845E4,3.4619465E4,4.9847312E4,3.7040816E4,2.4828695E4,4.5820418E4,8.747416E4,4.73387E4,6.4866953E4,1.0091643E5,1.1571707E4,8.933161E4,-5.223715E3,2.921972E4,3.073828E2,1.2568607E5,4.2898782E2,4.680065E4,1.107711E5,3.223576E5,1.3663812E5,3.7016418E4,1.02688625E5,5.598211E5,2.216733E5,6.165889E4,2.1596488E5,7.377905E4,1.935317E4,1.420076E5,3.557016E4,5.9851535E4,1.7326307E4],"split_indices":[7,3,7,10,0,2,3,11,4,6,5,0,0,0,0,2,8,10,2,11,0,11,6,6,2,11,0,8,0,8,6,4,0,11,7,11,10,0,0,6,0,6,0,3,6,0,0,0,0,0,0,0,0,0,0,0,0,0,0,0,0,0,0,0,0,0,0,0,0,0,0,0,0,0,0,0,0,0,0,0,0],"split_type":[0,0,0,0,0,0,0,0,0,0,0,0,0,0,0,0,0,0,0,0,0,0,0,0,0,0,0,0,0,0,0,0,0,0,0,0,0,0,0,0,0,0,0,0,0,0,0,0,0,0,0,0,0,0,0,0,0,0,0,0,0,0,0,0,0,0,0,0,0,0,0,0,0,0,0,0,0,0,0,0,0],"sum_hessian":[1.933E3,1.55E3,3.83E2,1.544E3,6E0,3.41E2,4.2E1,1.345E3,1.99E2,3.31E2,1E1,1.5E1,2.7E1,2.47E2,1.098E3,1.72E2,2.7E1,1.78E2,1.53E2,9E0,1E0,7E0,8E0,1.5E1,1.2E1,2.3E1,2.24E2,9.48E2,1.5E2,1.61E2,1.1E1,2.3E1,4E0,3.6E1,1.42E2,6.8E1,8.5E1,8E0,1E0,6E0,1E0,7E0,1E0,1E1,5E0,9E0,3E0,9E0,1.4E1,6.1E1,1.63E2,7.73E2,1.75E2,1.44E2,6E0,1.45E2,1.6E1,9E0,2E0,2.2E1,1E0,3E0,1E0,3.2E1,4E0,1.14E2,2.8E1,1.1E1,5.7E1,3.5E1,5E1,4E0,2E0,5E0,2E0,2E0,8E0,3E0,2E0,1E0,2E0],"tree_param":{"num_deleted":"0","num_feature":"12","num_nodes":"81","size_leaf_vector":"0"}},{"base_weights":[1.3186462E5,9.891425E4,2.646098E5,9.691796E4,2.2732334E5,2.345928E5,4.9719606E5,1.1187099E5,7.9602664E4,3.163587E5,1.19344375E5,2.264883E5,1.074905E6,7.212036E5,3.5143475E5,2.0641656E5,1.0570917E5,7.223468E4,1.5846414E5,3.5435053E5,1.5178734E5,1.40157E5,-5.479725E4,1.6814245E5,2.9107647E5,1.1499248E6,2.5998444E5,1.7299844E5,5.440152E5,3.3885016E5,1.3702733E4,7.328498E4,1.1533455E5,3.838778E4,8.677295E4,4.0529534E5,1.23532984E5,8.198395E4,3.7814838E5,3.9731875E4,1.7589522E5,1.2560273E4,1.5166066E5,-9.041164E4,1.821971E5,2.1856017E5,6.401917E5,1.2663504E6,1.6747281E5,3.3157528E5,-1.5637112E5,9.236383E4,2.919955E5,6.594429E5,1.1944228E5,2.8025106E5,9.8981225E5,4.130891E4,-4.7410895E4,6.3617957E4,1.1412639E5,1.102788E5,1.6466983E5,3.1999457E4,2.0812638E5,7.8822266E4,1.4215605E5,9.213326E5,1.657337E5,1.762248E5,8.1800336E4,4.0104897E5,1.0892211E5,1.7347392E5,7.5572266E4,-1.3686477E5,6.3600574E4,2.1496131E5,5.684218E4,3.466501E5,1.5208675E5,1.7915901E6,2.9707428E5,1.5414722E5,5.7590625E5,3.5032437E3,1.4264084E5,3.6685294E5,9.485375E4,1.6957934E5,4.620348E4],"categories":[],"categories_nodes":[],"categories_segments":[],"categories_sizes":[],"default_left":[1,1,1,1,1,1,1,1,1,1,1,1,0,1,1,1,1,1,1,1,1,1,0,1,1,1,1,1,1,1,1,1,1,1,1,1,1,0,1,0,0,0,1,1,1,1,1,0,0,1,0,1,1,0,1,0,0,0,0,0,0,0,0,0,0,0,0,0,0,0,0,0,0,0,0,0,0,0,0,0,0,0,0,0,0,0,0,0,0,0,0],"id":3,"left_children":[1,3,5,7,9,11,13,15,17,19,21,23,-1,25,27,29,31,33,35,37,39,41,-1,43,45,47,49,51,53,55,57,59,61,63,65,67,69,-1,71,-1,-1,-1,73,75,77,79,81,-1,-1,83,-1,85,87,-1,89,-1,-1,-1,-1,-1,-1,-1,-1,-1,-1,-1,-1,-1,-1,-1,-1,-1,-1,-1,-1,-1,-1,-1,-1,-1,-1,-1,-1,-1,-1,-1,-1,-1,-1,-1,-1],"loss_changes":[8.4331473E12,3.7555483E11,2.5642758E12,3.8697802E11,1.8336501E11,2.0856722E12,1.1505647E12,4.5472442E11,4.022605E11,2.1242577E10,5.1172344E10,1.2323306E12,0E0,2.8647878E12,8.680597E11,1.2459242E12,2.318606E11,3.1799404E11,4.6725883E11,2.7333493E10,3.8170296E9,1.4241202E10,0E0,6.742055E11,3.910727E12,7.029811E11,3.20114E11,1.265547E11,5.583316E11,8.2883196E11,3.738788E10,6.3411323E10,1.2950071E11,2.0804036E11,1.8958726E11,7.1266324E11,1.0432899E11,0E0,5.6404214E9,0E0,0E0,0E0,3.4875474E9,8.024816E10,6.9421236E11,1.0882326E12,1.0134513E13,0E0,0E0,2.5803502E11,0E0,4.86444E10,5.3747778E10,0E0,6.8527596E9,0E0,0E0,0E0,0E0,0E0,0E0,0E0,0E0,0E0,0E0,0E0,0E0,0E0,0E0,0E0,0E0,0E0,0E0,0E0,0E0,0E0,0E0,0E0,0E0,0E0,0E0,0E0,0E0,0E0,0E0,0E0,0E0,0E0,0E0,0E0,0E0],"parents":[2147483647,0,0,1,1,2,2,3,3,4,4,5,5,6,6,7,7,8,8,9,9,10,10,11,11,13,13,14,14,15,15,16,16,17,17,18,18,19,19,20,20,21,21,23,23,24,24,25,25,26,26,27,27,28,28,29,29,30,30,31,31,32,32,33,33,34,34,35,35,36,36,38,38,42,42,43,43,44,44,45,45,46,46,49,49,51,51,52,52,54,54],"right_children":[2,4,6,8,10,12,14,16,18,20,22,24,-1,26,28,30,32,34,36,38,40,42,-1,44,46,48,50,52,54,56,58,60,62,64,66,68,70,-1,72,-1,-1,-1,74,76,78,80,82,-1,-1,84,-1,86,88,-1,90,-1,-1,-1,-1,-1,-1,-1,-1,-1,-1,-1,-1,-1,-1,-1,-1,-1,-1,-1,-1,-1,-1,-1,-1,-1,-1,-1,-1,-1,-1,-1,-1,-1,-1,-1,-1],"split_conditions":[1.5E0,2.2E1,3.5E0,2.075E2,5E-1,1.49E2,1.25E2,5E-1,1.95E1,3E0,3.5E0,1.9775E3,3.224715E5,4.5E0,9.5E0,5E-1,1.5E0,1.5E0,5E-1,6.7E1,6.58E2,1E0,-1.6439176E4,1.03E2,2.5E0,6.525E2,1.986E3,1.9055E3,1.025E2,1.96E2,5E-1,5E-1,4.25E1,5E-1,1.5E0,2.4E1,1E1,2.4595188E4,1.934E3,1.19195625E4,5.2768566E4,3.7680823E3,5.27E2,1.75E1,3.575E2,9.25E1,1.9955E3,3.7990512E5,5.0241848E4,1.9295E3,-4.691134E4,4.5E0,1.959E3,1.9783288E5,1.85E1,8.407532E4,2.969437E5,1.2392674E4,-1.4223269E4,1.9085389E4,3.4237918E4,3.308364E4,4.940095E4,9.599838E3,6.2437914E4,2.364668E4,4.2646816E4,2.763998E5,4.9720113E4,5.286744E4,2.4540102E4,1.20314695E5,3.2676635E4,5.204218E4,2.267168E4,-4.105943E4,1.9080174E4,6.4488395E4,1.7052654E4,1.0399503E5,4.5626027E4,5.3747706E5,8.912229E4,4.6244168E4,1.7277188E5,1.0509731E3,4.2792254E4,1.1005588E5,2.8456127E4,5.0873805E4,1.3861045E4],"split_indices":[7,3,7,11,10,2,3,0,2,5,5,6,0,0,0,7,0,0,10,3,3,5,0,11,10,11,6,6,2,11,8,8,4,9,10,2,4,0,6,0,0,0,11,4,11,11,6,0,0,6,0,0,6,0,0,0,0,0,0,0,0,0,0,0,0,0,0,0,0,0,0,0,0,0,0,0,0,0,0,0,0,0,0,0,0,0,0,0,0,0,0],"split_type":[0,0,0,0,0,0,0,0,0,0,0,0,0,0,0,0,0,0,0,0,0,0,0,0,0,0,0,0,0,0,0,0,0,0,0,0,0,0,0,0,0,0,0,0,0,0,0,0,0,0,0,0,0,0,0,0,0,0,0,0,0,0,0,0,0,0,0,0,0,0,0,0,0,0,0,0,0,0,0,0,0,0,0,0,0,0,0,0,0,0,0],"sum_hessian":[1.933E3,1.55E3,3.83E2,1.528E3,2.2E1,3.41E2,4.2E1,8.17E2,7.11E2,1.1E1,1.1E1,3.39E2,2E0,1.5E1,2.7E1,4.8E1,7.69E2,6.52E2,5.9E1,8E0,3E0,1E1,1E0,1.8E2,1.59E2,7E0,8E0,1.5E1,1.2E1,2.8E1,2E1,1.78E2,5.91E2,1.97E2,4.55E2,6E0,5.3E1,1E0,7E0,1E0,2E0,1E0,9E0,9E0,1.71E2,1.33E2,2.6E1,6E0,1E0,7E0,1E0,1E1,5E0,9E0,3E0,2.7E1,1E0,1.4E1,6E0,1.46E2,3.2E1,5.39E2,5.2E1,1.91E2,6E0,4E2,5.5E1,1E0,5E0,2.2E1,3.1E1,6E0,1E0,6E0,3E0,7E0,2E0,1.35E2,3.6E1,4.4E1,8.9E1,5E0,2.1E1,5E0,2E0,4E0,6E0,3E0,2E0,1E0,2E0],"tree_param":{"num_deleted":"0","num_feature":"12","num_nodes":"91","size_leaf_vector":"0"}},{"base_weights":[9.414939E4,7.0117586E4,1.9097017E5,6.7955484E4,1.5921811E5,1.7530484E5,4.6731375E5,7.9621336E4,5.456485E4,1.3274748E5,3.3779625E5,1.691639E5,8.5992406E5,6.0703525E5,1.8185208E5,1.06585984E5,6.519842E4,2.9728564E4,7.1884914E4,1.0283479E5,3.2390588E5,2.1292219E5,1.0488744E5,1.289726E6,4.4266722E5,2.6673406E5,3.0286566E4,2.0529911E5,8.830342E4,5.8397883E4,1.0558571E5,2.2595947E4,5.8863688E4,6.1279664E4,1.07186086E5,1.2669758E5,2.1374914E4,3.7443628E5,8.615731E4,3.6365278E5,1.8159317E5,-3.411128E4,1.1621423E5,2.803396E5,6.13858E5,4.4750125E4,3.1104253E5,5.1289453E3,3.6962793E4,2.9586522E5,-3.4353503E3,4.4735984E4,1.0476107E5,-1.5499345E4,6.1831086E4,1.1529838E5,-2.532644E4,2.3935047E4,-3.294861E4,4.5656363E4,1.0005338E5,7.518791E4,4.6993152E4,4.3133293E4,1.22631734E5,8.646983E4,1.7966633E5,4.5523062E4,-2.2185874E3,4.8660778E5,7.719211E4,1.9933919E5,-1.0917191E5,-6.85033E4,9.189919E4,2.0991972E5,9.760111E4,3.1862803E5,6.1602812E3],"categories":[],"categories_nodes":[],"categories_segments":[],"categories_sizes":[],"default_left":[1,1,1,1,1,1,1,1,1,1,0,1,0,1,1,1,1,1,1,1,1,1,1,0,1,1,1,1,1,1,1,1,1,1,1,1,1,0,0,1,1,1,1,1,0,0,0,0,0,0,0,0,0,0,0,0,0,0,0,0,0,0,0,0,0,0,0,0,0,0,0,0,0,0,0,0,0,0,0],"id":4,"left_children":[1,3,5,7,9,11,13,15,17,19,-1,21,-1,23,25,27,29,31,33,35,37,39,41,-1,43,45,47,49,51,53,55,57,59,61,63,65,67,-1,-1,69,71,73,75,77,-1,-1,-1,-1,-1,-1,-1,-1,-1,-1,-1,-1,-1,-1,-1,-1,-1,-1,-1,-1,-1,-1,-1,-1,-1,-1,-1,-1,-1,-1,-1,-1,-1,-1,-1],"loss_changes":[4.486599E12,2.8797043E11,1.580418E12,2.3247507E11,1.2533301E11,1.3890675E12,6.8731195E11,3.0728887E11,3.0285077E11,1.553873E11,0E0,9.9865225E11,0E0,8.87844E11,9.484301E10,4.871954E11,1.3912664E11,5.9558134E10,1.4954725E11,5.5607656E10,1.5793684E10,9.492444E11,2.385513E11,0E0,1.61379E11,3.5259613E10,4.8225178E8,8.1389984E11,1.6596363E11,1.1639377E11,9.8283225E10,1.8416632E10,2.6440253E10,6.0646883E10,8.869767E10,3.3473004E10,4.658912E9,0E0,0E0,1.2304216E12,9.505478E11,5.8300436E10,2.202045E11,8.2020336E10,0E0,0E0,0E0,0E0,0E0,0E0,0E0,0E0,0E0,0E0,0E0,0E0,0E0,0E0,0E0,0E0,0E0,0E0,0E0,0E0,0E0,0E0,0E0,0E0,0E0,0E0,0E0,0E0,0E0,0E0,0E0,0E0,0E0,0E0,0E0],"parents":[2147483647,0,0,1,1,2,2,3,3,4,4,5,5,6,6,7,7,8,8,9,9,11,11,13,13,14,14,15,15,16,16,17,17,18,18,19,19,20,20,21,21,22,22,24,24,25,25,26,26,27,27,28,28,29,29,30,30,31,31,32,32,33,33,34,34,35,35,36,36,39,39,40,40,41,41,42,42,43,43],"right_children":[2,4,6,8,10,12,14,16,18,20,-1,22,-1,24,26,28,30,32,34,36,38,40,42,-1,44,46,48,50,52,54,56,58,60,62,64,66,68,-1,-1,70,72,74,76,78,-1,-1,-1,-1,-1,-1,-1,-1,-1,-1,-1,-1,-1,-1,-1,-1,-1,-1,-1,-1,-1,-1,-1,-1,-1,-1,-1,-1,-1,-1,-1,-1,-1,-1,-1],"split_conditions":[1.5E0,3.5E0,5.5E0,1.35E1,6.45E1,1.49E2,3.27E2,5E-1,2.85E1,7.5E0,1.0133888E5,6E0,2.5797723E5,1.25E2,4.45E2,5E-1,1.5E0,1.15E1,4.25E1,1.955E3,1E0,9.9880005E1,2.35E1,3.869178E5,4.105E2,8.5E0,1.65E1,1.9655E3,1.5E0,5E-1,5.1E2,2.0235E3,2.65E1,1.865E2,5E-1,1.9055E3,2.69E2,1.1233089E5,2.5847195E4,2.0185E3,2.0095E3,2.5E0,2.95E1,3.525E2,1.841574E5,1.3425038E4,9.3312766E4,1.5386837E3,1.1088838E4,8.875957E4,-1.0306051E3,1.3420796E4,3.1428322E4,-4.6498037E3,1.8549326E4,3.4589516E4,-7.597932E3,7.180514E3,-9.884583E3,1.3696909E4,3.0016016E4,2.2556373E4,1.4097946E4,1.2939988E4,3.6789523E4,2.594095E4,5.3899902E4,1.3656919E4,-6.6557623E2,1.4598234E5,2.3157633E4,5.9801758E4,-3.2751572E4,-2.055099E4,2.7569758E4,6.2975918E4,2.9280334E4,9.5588414E4,1.8480845E3],"split_indices":[7,0,7,4,4,2,11,10,4,0,0,4,0,3,3,0,10,2,4,6,5,11,4,0,3,0,0,6,0,0,11,6,4,11,1,6,11,0,0,6,6,10,4,3,0,0,0,0,0,0,0,0,0,0,0,0,0,0,0,0,0,0,0,0,0,0,0,0,0,0,0,0,0,0,0,0,0,0,0],"split_type":[0,0,0,0,0,0,0,0,0,0,0,0,0,0,0,0,0,0,0,0,0,0,0,0,0,0,0,0,0,0,0,0,0,0,0,0,0,0,0,0,0,0,0,0,0,0,0,0,0,0,0,0,0,0,0,0,0,0,0,0,0,0,0,0,0,0,0,0,0,0,0,0,0,0,0,0,0,0,0],"sum_hessian":[1.933E3,1.55E3,3.83E2,1.515E3,3.5E1,3.64E2,1.9E1,8.07E2,7.08E2,3.2E1,3E0,3.62E2,2E0,1.2E1,7E0,2.79E2,5.28E2,2.92E2,4.16E2,2.9E1,3E0,2.14E2,1.48E2,1E0,1.1E1,4E0,3E0,4.2E1,2.37E2,4.54E2,7.4E1,2.36E2,5.6E1,3.22E2,9.4E1,2.2E1,7E0,2E0,1E0,3.5E1,1.79E2,1.1E1,1.37E2,7E0,4E0,1E0,3E0,1E0,2E0,2.9E1,1.3E1,6.6E1,1.71E2,2E1,4.34E2,6.9E1,5E0,2.31E2,5E0,4.4E1,1.2E1,1.61E2,1.61E2,1.9E1,7.5E1,1.4E1,8E0,3E0,4E0,2.4E1,1.1E1,1.69E2,1E1,9E0,2E0,2.1E1,1.16E2,6E0,1E0],"tree_param":{"num_deleted":"0","num_feature":"12","num_nodes":"79","size_leaf_vector":"0"}},{"base_weights":[6.692552E4,4.9490566E4,1.3717214E5,4.8791047E4,2.5602347E5,1.1753738E5,2.901469E5,4.6831984E4,1.1031798E5,3.1443234E5,1.1227344E5,1.07132664E5,4.2088534E5,4.5580756E5,1.8512128E5,4.5428184E4,1.060657E5,1.4547742E5,6.730475E4,2.514127E4,1.3524655E5,2.8510234E5,6.879392E5,7.547271E5,1.3945595E5,7.889311E4,3.0162356E5,7.765713E4,4.2811723E4,8.25505E4,2.617921E5,1.2939068E4,1.7010669E5,3.1840512E4,1.6248002E5,-4.9925024E3,1.8047156E5,1.8273617E5,7.2433625E4,1.5486055E5,4.0918944E5,8.189016E5,2.1300719E5,1.0103601E6,2.4650416E5,1.9759203E5,-1.6281633E5,2.4361701E4,1.657185E5,3.8404388E5,9.294229E4,4.437852E4,1.2770388E5,4.7230766E4,1.944578E4,6.334069E4,1.6977336E5,4.966467E4,-8.6585E3,1.8698694E5,6.4962085E3,6.0923716E3,8.23214E4,-2.8853957E4,2.2410892E5,-1.4679102E5,3.7859422E5,1.0387327E5,2.8027544E5,1.5868142E5,4.85251E4,2.8278516E4,1.7452125E5,1.198225E6,1.2945025E5,7.297605E4,3.8096E5,-2.402836E4,1.1505139E5,2.2156638E5,3.6015168E4,4.8424588E5,2.0703311E5,1.25333586E5,2.9570229E4],"categories":[],"categories_nodes":[],"categories_segments":[],"categories_sizes":[],"default_left":[1,1,1,1,1,1,1,1,1,0,0,1,1,1,1,1,1,1,1,1,1,1,1,1,1,1,1,1,1,1,0,1,1,1,0,1,1,1,1,1,0,0,0,1,0,1,0,1,1,1,1,0,0,0,0,0,0,0,0,0,0,0,0,0,0,0,0,0,0,0,0,0,0,0,0,0,0,0,0,0,0,0,0,0,0],"id":5,"left_children":[1,3,5,7,9,11,13,15,17,-1,-1,19,21,23,25,27,29,31,33,35,37,39,41,43,45,47,49,51,53,55,-1,57,59,61,-1,63,65,67,69,71,-1,-1,-1,73,-1,75,-1,77,79,81,83,-1,-1,-1,-1,-1,-1,-1,-1,-1,-1,-1,-1,-1,-1,-1,-1,-1,-1,-1,-1,-1,-1,-1,-1,-1,-1,-1,-1,-1,-1,-1,-1,-1,-1],"loss_changes":[2.3618718E12,2.1158717E11,1.1192883E12,1.8130167E11,6.679003E9,1.0343463E12,6.6376067E11,1.1999301E11,6.128776E10,0E0,0E0,7.6189165E11,2.027419E11,1.4077673E12,3.2272705E11,1.2046539E11,1.028948E11,7.940699E10,7.245888E10,4.0344017E11,7.2355624E11,8.208463E10,1.2162826E10,7.9029076E11,1.9032752E11,7.171818E10,1.8790062E11,1.758707E11,1.3950858E11,4.1188E10,0E0,4.3959404E9,5.6782815E10,2.2894668E10,0E0,4.05535E11,9.63308E11,1.0477985E12,2.1500219E11,9.99696E9,0E0,0E0,0E0,6.7234955E11,0E0,1.5500368E11,0E0,5.103777E10,3.548219E10,5.9376534E10,6.5573765E9,0E0,0E0,0E0,0E0,0E0,0E0,0E0,0E0,0E0,0E0,0E0,0E0,0E0,0E0,0E0,0E0,0E0,0E0,0E0,0E0,0E0,0E0,0E0,0E0,0E0,0E0,0E0,0E0,0E0,0E0,0E0,0E0,0E0,0E0],"parents":[2147483647,0,0,1,1,2,2,3,3,4,4,5,5,6,6,7,7,8,8,11,11,12,12,13,13,14,14,15,15,16,16,17,17,18,18,19,19,20,20,21,21,22,22,23,23,24,24,25,25,26,26,27,27,28,28,29,29,31,31,32,32,33,33,35,35,36,36,37,37,38,38,39,39,43,43,45,45,47,47,48,48,49,49,50,50],"right_children":[2,4,6,8,10,12,14,16,18,-1,-1,20,22,24,26,28,30,32,34,36,38,40,42,44,46,48,50,52,54,56,-1,58,60,62,-1,64,66,68,70,72,-1,-1,-1,74,-1,76,-1,78,80,82,84,-1,-1,-1,-1,-1,-1,-1,-1,-1,-1,-1,-1,-1,-1,-1,-1,-1,-1,-1,-1,-1,-1,-1,-1,-1,-1,-1,-1,-1,-1,-1,-1,-1,-1],"split_conditions":[1.5E0,7E2,3.5E0,3.95E1,2E0,7.05E1,1.25E2,3.5E0,1.9765E3,9.43297E4,3.368203E4,1E0,1.49E2,4.5E0,9.5E0,7.25E1,6.45E1,1.21E2,4.7E1,2.5E0,6E0,2.5E0,1.67E2,1E1,1.986E3,1.9055E3,3.27E2,5.35E1,2.5E0,6.5E0,7.853763E4,4.25E1,3.5E0,2.5E0,4.8744008E4,5.25E1,1.925E2,1.9775E3,1E2,9E1,1.22756836E5,2.456705E5,6.390216E4,9.515E2,7.395125E4,1.9295E3,-4.88449E4,2.5E0,1.959E3,4.5E0,1.95E1,1.3313557E4,3.8311168E4,1.416923E4,5.833734E3,1.9002209E4,5.093201E4,1.4899402E4,-2.59755E3,5.6096082E4,1.9488627E3,1.8277115E3,2.469642E4,-8.6561875E3,6.723268E4,-4.4037305E4,1.1357827E5,3.1161982E4,8.408263E4,4.760443E4,1.4557531E4,8.483555E3,5.235638E4,3.594675E5,3.883508E4,2.1892814E4,1.1428801E5,-7.2085083E3,3.4515418E4,6.6469914E4,1.0804551E4,1.4527377E5,6.2109934E4,3.760008E4,8.871069E3],"split_indices":[7,3,7,2,5,2,3,0,6,0,0,5,2,0,0,11,4,11,4,10,4,10,2,2,6,6,11,11,5,0,0,2,5,5,0,4,11,6,11,2,0,0,0,6,0,6,0,5,6,10,0,0,0,0,0,0,0,0,0,0,0,0,0,0,0,0,0,0,0,0,0,0,0,0,0,0,0,0,0,0,0,0,0,0,0],"split_type":[0,0,0,0,0,0,0,0,0,0,0,0,0,0,0,0,0,0,0,0,0,0,0,0,0,0,0,0,0,0,0,0,0,0,0,0,0,0,0,0,0,0,0,0,0,0,0,0,0,0,0,0,0,0,0,0,0,0,0,0,0,0,0,0,0,0,0,0,0,0,0,0,0,0,0,0,0,0,0,0,0,0,0,0,0],"sum_hessian":[1.933E3,1.55E3,3.83E2,1.546E3,4E0,3.41E2,4.2E1,1.5E3,4.6E1,2E0,2E0,3.31E2,1E1,1.5E1,2.7E1,1.467E3,3.3E1,2.4E1,2.2E1,8.5E1,2.46E2,8E0,2E0,7E0,8E0,1.5E1,1.2E1,1.08E2,1.359E3,3E1,3E0,4E0,2E1,1.7E1,5E0,7.2E1,1.3E1,1.39E2,1.07E2,5E0,3E0,1E0,1E0,4E0,3E0,7E0,1E0,1E1,5E0,8E0,4E0,6.6E1,4.2E1,1.142E3,2.17E2,2.6E1,4E0,1E0,3E0,1.8E1,2E0,1.2E1,5E0,6.6E1,6E0,5E0,8E0,7.8E1,6.1E1,2.2E1,8.5E1,1E0,4E0,3E0,1E0,5E0,2E0,7E0,3E0,3E0,2E0,4E0,4E0,2E0,2E0],"tree_param":{"num_deleted":"0","num_feature":"12","num_nodes":"85","size_leaf_vector":"0"}},{"base_weights":[4.799081E4,4.144399E4,1.742872E5,3.746171E4,1.6535525E5,3.0945134E5,1.29313734E5,3.6605664E4,4.092507E5,1.5128668E4,4.221661E5,4.256304E5,3.841182E4,1.0498277E5,5.2277722E5,2.9084508E4,6.1369758E4,8.1623336E4,6.960664E5,-1.5230073E5,5.2447285E4,1.2470561E6,1.5471808E5,5.8229825E5,6.746762E4,-4.7656273E4,1.3639398E5,-2.1271611E5,1.2746022E5,9.165334E5,8.601404E4,2.737387E4,7.876896E4,8.91307E4,2.1398764E4,-7.866893E4,-1.8785736E5,-2.845309E4,1.1245606E5,-4.159162E4,2.6557716E5,6.1486406E5,1.2832003E5,-1.5700408E5,2.1895448E5,-1.208932E4,-9.496205E4,3.255323E4,2.5509995E5,4.470707E4,2.138672E4,-9.898627E3,9.820786E4,4.90094E5,6.4444047E4,3.6795825E3,1.0803477E5,6.5364688E4,-1.3160867E5,1.2717517E5,-6.888441E4,-1.3331283E5,2.5436781E5,8.078499E4,2.9766597E5,-6.2994977E4,1.1745145E5,3.8858644E5,9.385729E4],"categories":[],"categories_nodes":[],"categories_segments":[],"categories_sizes":[],"default_left":[1,1,1,1,1,1,1,1,1,1,1,1,1,1,1,1,1,0,0,1,1,0,1,1,1,1,0,0,1,0,0,1,1,1,1,0,0,1,1,1,1,0,0,0,0,0,0,1,1,0,0,0,0,0,0,0,0,0,0,0,0,0,0,0,0,0,0,0,0],"id":6,"left_children":[1,3,5,7,9,11,13,15,17,19,21,23,25,27,29,31,33,-1,-1,35,37,-1,39,41,43,45,-1,-1,47,-1,-1,49,51,53,55,-1,-1,57,59,61,63,-1,-1,-1,-1,-1,-1,65,67,-1,-1,-1,-1,-1,-1,-1,-1,-1,-1,-1,-1,-1,-1,-1,-1,-1,-1,-1,-1],"loss_changes":[1.5918852E12,9.01752E11,5.3746965E11,5.528098E11,2.1926627E12,7.079005E11,6.439718E11,3.299347E11,3.190594E11,2.3917242E11,4.439978E12,8.585153E11,7.396513E10,5.2698703E11,6.09078E11,1.1411286E11,4.5748073E11,0E0,0E0,3.5481518E9,1.5369644E11,0E0,3.810119E11,8.3726434E10,2.3840385E11,7.2645837E9,0E0,0E0,7.912133E11,0E0,0E0,1.3644392E11,7.853415E10,2.3836366E12,2.6210782E11,0E0,0E0,1.4409215E11,5.6805474E10,2.239308E11,4.1180398E10,0E0,0E0,0E0,0E0,0E0,0E0,3.237619E11,5.661925E11,0E0,0E0,0E0,0E0,0E0,0E0,0E0,0E0,0E0,0E0,0E0,0E0,0E0,0E0,0E0,0E0,0E0,0E0,0E0,0E0],"parents":[2147483647,0,0,1,1,2,2,3,3,4,4,5,5,6,6,7,7,8,8,9,9,10,10,11,11,12,12,13,13,14,14,15,15,16,16,19,19,20,20,22,22,23,23,24,24,25,25,28,28,31,31,32,32,33,33,34,34,37,37,38,38,39,39,40,40,47,47,48,48],"right_children":[2,4,6,8,10,12,14,16,18,20,22,24,26,28,30,32,34,-1,-1,36,38,-1,40,42,44,46,-1,-1,48,-1,-1,50,52,54,56,-1,-1,58,60,62,64,-1,-1,-1,-1,-1,-1,66,68,-1,-1,-1,-1,-1,-1,-1,-1,-1,-1,-1,-1,-1,-1,-1,-1,-1,-1,-1,-1],"split_conditions":[2.5E0,2.5E0,1.565E2,1.49E2,1.9835E3,2.45E1,6.5E0,2.5E0,2.5E0,1.29E2,2E3,1.2E2,5.5E0,1.665E2,8E0,4.75E1,6.5E0,2.4487002E4,2.0881992E5,5E-1,6E0,3.7411684E5,2.0145E3,1.2E1,7.5E0,3.5E0,4.0918195E4,-6.3814836E4,1.9185E3,2.7496003E5,2.5804213E4,5E-1,5E-1,9.5E1,3.45E1,-2.360068E4,-5.635721E4,1.5E0,7.5E1,1.85E2,1.8E1,1.8445922E5,3.849601E4,-4.7101227E4,6.568635E4,-3.6267961E3,-2.8488615E4,3.5E0,1.25E1,1.3412122E4,6.4160166E3,-2.9695881E3,2.946236E4,1.470282E5,1.9333215E4,1.1038748E3,3.2410434E4,1.9609406E4,-3.94826E4,3.8152555E4,-2.0665322E4,-3.999385E4,7.631034E4,2.4235498E4,8.92998E4,-1.8898494E4,3.5235438E4,1.1657594E5,2.8157188E4],"split_indices":[7,10,11,2,6,4,8,0,0,11,6,3,0,11,0,4,2,0,0,1,4,0,6,4,0,0,0,0,6,0,0,10,1,11,2,0,0,7,4,11,2,0,0,0,0,0,0,7,4,0,0,0,0,0,0,0,0,0,0,0,0,0,0,0,0,0,0,0,0],"split_type":[0,0,0,0,0,0,0,0,0,0,0,0,0,0,0,0,0,0,0,0,0,0,0,0,0,0,0,0,0,0,0,0,0,0,0,0,0,0,0,0,0,0,0,0,0,0,0,0,0,0,0,0,0,0,0,0,0,0,0,0,0,0,0,0,0,0,0,0,0],"sum_hessian":[1.933E3,1.839E3,9.4E1,1.783E3,5.6E1,2.2E1,7.2E1,1.78E3,3E0,3.6E1,2E1,1.5E1,7E0,6.9E1,3E0,1.367E3,4.13E2,2E0,1E0,6E0,3E1,4E0,1.6E1,1E1,5E0,4E0,3E0,4E0,6.5E1,1E0,2E0,1.323E3,4.4E1,2.43E2,1.7E2,3E0,3E0,1.3E1,1.7E1,6E0,1E1,9E0,1E0,2E0,3E0,3E0,1E0,3.8E1,2.7E1,3.38E2,9.85E2,8E0,3.6E1,1.3E1,2.3E2,1.42E2,2.8E1,7E0,6E0,1.6E1,1E0,5E0,1E0,2E0,8E0,1.8E1,2E1,1.4E1,1.3E1],"tree_param":{"num_deleted":"0","num_feature":"12","num_nodes":"69","size_leaf_vector":"0"}},{"base_weights":[3.440509E4,2.9511402E4,1.2882591E5,2.6491975E4,1.2349647E5,1.1384697E5,4.411351E5,2.5762197E4,3.4480222E5,8.364555E3,3.2046716E5,2.2750044E5,7.48773E4,7.790534E5,6.881121E4,6.409064E4,2.270539E4,6.5298668E4,5.9165644E5,-1.1803306E5,3.663613E4,9.477627E5,1.1711747E5,3.1303756E5,2.798862E4,-1.6166425E5,9.166261E4,2.4049717E4,4.2568903E5,2.168646E4,1.1394017E5,-6.0968414E4,-1.4558944E5,-2.818237E4,9.167385E4,-2.3926062E4,1.962254E5,4.2787744E5,5.0324855E4,-3.9782484E4,1.0570534E5,2.383547E4,1.9509531E5,2.8657848E4,-1.6368392E5,5.3795575E5,-4.6075594E5,2.1151578E4,1.9172066E5,2.3125011E5,6.390518E4,9.179728E4,-9.735192E4,1.0472244E5,-5.855175E4,-9.998462E4,2.1621262E5,2.1741742E5,-7.8474062E3,1.9113167E5,4.9276566E5,-1.2560325E5,1.6968972E5,-9.369234E3,-8.071774E4,2.688047E5,-2.578011E3,3.1727072E5,6.771133E4],"categories":[],"categories_nodes":[],"categories_segments":[],"categories_sizes":[],"default_left":[1,1,1,1,1,1,1,1,1,1,1,1,1,0,0,1,1,0,0,1,1,0,1,1,1,0,1,1,1,1,1,0,0,1,1,1,1,1,1,1,0,1,1,0,0,0,0,0,0,0,0,0,0,0,0,0,0,0,0,0,0,0,0,0,0,0,0,0,0],"id":7,"left_children":[1,3,5,7,9,11,13,15,17,19,21,23,25,-1,-1,27,29,-1,-1,31,33,-1,35,37,39,-1,41,43,45,47,49,-1,-1,51,53,55,57,59,61,63,-1,65,67,-1,-1,-1,-1,-1,-1,-1,-1,-1,-1,-1,-1,-1,-1,-1,-1,-1,-1,-1,-1,-1,-1,-1,-1,-1,-1],"loss_changes":[8.898334E11,5.1888587E11,3.9419393E11,4.055323E11,1.2899433E12,3.9043688E11,4.496526E11,2.0721146E11,2.3735216E11,1.3654227E11,2.5677676E12,3.8374893E11,2.9274823E11,0E0,0E0,1.8864763E12,1.5100897E11,0E0,0E0,2.1311078E9,1.1317494E11,0E0,1.9437514E11,4.611856E11,4.634081E10,0E0,4.5837576E11,1.0763785E11,1.5416039E12,1.4455413E11,9.0874724E10,0E0,0E0,1.3342073E11,3.945562E10,1.4947013E11,4.927806E10,7.479886E10,1.473114E11,5.4686085E9,0E0,2.6598308E11,3.8316003E11,0E0,0E0,0E0,0E0,0E0,0E0,0E0,0E0,0E0,0E0,0E0,0E0,0E0,0E0,0E0,0E0,0E0,0E0,0E0,0E0,0E0,0E0,0E0,0E0,0E0,0E0],"parents":[2147483647,0,0,1,1,2,2,3,3,4,4,5,5,6,6,7,7,8,8,9,9,10,10,11,11,12,12,15,15,16,16,19,19,20,20,22,22,23,23,24,24,26,26,27,27,28,28,29,29,30,30,33,33,34,34,35,35,36,36,37,37,38,38,39,39,41,41,42,42],"right_children":[2,4,6,8,10,12,14,16,18,20,22,24,26,-1,-1,28,30,-1,-1,32,34,-1,36,38,40,-1,42,44,46,48,50,-1,-1,52,54,56,58,60,62,64,-1,66,68,-1,-1,-1,-1,-1,-1,-1,-1,-1,-1,-1,-1,-1,-1,-1,-1,-1,-1,-1,-1,-1,-1,-1,-1,-1,-1],"split_conditions":[2.5E0,2.5E0,6.5E0,1.49E2,1.9835E3,1.565E2,8E0,6.65E1,2.5E0,1.29E2,2E3,2.45E1,1.665E2,2.3371602E5,2.0643363E4,6.45E1,6.45E1,1.9589602E4,1.7749694E5,5E-1,9.45E2,2.843288E5,2.0145E3,1.2E2,5.5E0,-4.8499277E4,1.925E3,1.5E0,3E0,6.96E2,6.75E1,-1.8290525E4,-4.3676832E4,2.05E2,7.25E1,1.85E2,1.5E0,1.12E2,7.5E0,3.5E0,3.1711604E4,1.75E2,1.25E1,8.5973545E3,-4.910518E4,1.6138673E5,-1.3822678E5,6.3454736E3,5.75162E4,6.937504E4,1.9171555E4,2.7539186E4,-2.9205578E4,3.1416732E4,-1.7565525E4,-2.9995387E4,6.486379E4,6.522523E4,-2.354222E3,5.7339504E4,1.478297E5,-3.7680977E4,5.0906918E4,-2.8107705E3,-2.4215324E4,8.064141E4,-7.734033E2,9.518122E4,2.0313398E4],"split_indices":[7,10,8,2,6,11,0,11,0,11,6,4,11,0,0,11,4,0,0,1,6,0,6,3,0,0,6,8,5,3,4,0,0,11,4,11,8,11,0,0,0,11,4,0,0,0,0,0,0,0,0,0,0,0,0,0,0,0,0,0,0,0,0,0,0,0,0,0,0],"split_type":[0,0,0,0,0,0,0,0,0,0,0,0,0,0,0,0,0,0,0,0,0,0,0,0,0,0,0,0,0,0,0,0,0,0,0,0,0,0,0,0,0,0,0,0,0,0,0,0,0,0,0,0,0,0,0,0,0,0,0,0,0,0,0,0,0,0,0,0,0],"sum_hessian":[1.933E3,1.839E3,9.4E1,1.783E3,5.6E1,9.1E1,3E0,1.78E3,3E0,3.6E1,2E1,2.2E1,6.9E1,1E0,2E0,1.3E2,1.65E3,2E0,1E0,6E0,3E1,4E0,1.6E1,1.5E1,7E0,4E0,6.5E1,1.18E2,1.2E1,1.633E3,1.7E1,3E0,3E0,1.4E1,1.6E1,6E0,1E1,1E1,5E0,4E0,3E0,4E1,2.5E1,1.16E2,2E0,1.1E1,1E0,1.629E3,4E0,4E0,1.3E1,5E0,9E0,1.5E1,1E0,5E0,1E0,9E0,1E0,3E0,7E0,2E0,3E0,3E0,1E0,3E0,3.7E1,1.2E1,1.3E1],"tree_param":{"num_deleted":"0","num_feature":"12","num_nodes":"69","size_leaf_vector":"0"}},{"base_weights":[2.4749922E4,2.3190314E4,2.3698252E5,1.3716329E4,4.7518953E4,6.621954E5,1.5333572E5,1.7793332E4,-7.476157E3,4.543245E4,4.0446775E5,2.8679125E5,8.461994E4,1.6857691E4,1.6963219E5,2.0665103E3,-9.5189125E4,7.7552305E4,2.698565E4,5.02908E5,1.03793625E5,3.3771672E5,6.700744E4,1.090215E5,-8.657542E3,2.546292E4,5.1686167E3,2.7188534E5,7.435385E4,4.7771746E4,-1.0881931E4,6.2812547E4,-2.0940664E5,6.884162E4,3.9479012E5,-3.0852402E4,4.171707E4,2.433971E4,1.5496264E5,3.8220934E4,8.934683E3,-2.3279336E3,3.8595777E4,5.813297E3,1.1810979E5,5.9690824E4,1.711587E4,1.2768648E5,-1.6210038E4,-1.27660195E5,3.8043672E5,-3.7050847E5,-6.2404438E4,1.0985234E5,2.7966771E4,-3.3152062E4,6.911356E5,-5.0989105E4,9.5066734E4,5.6951434E4,-3.2749246E4,-8.390531E3,3.8046637E4],"categories":[],"categories_nodes":[],"categories_segments":[],"categories_sizes":[],"default_left":[1,1,1,1,1,0,1,1,1,1,1,1,1,1,1,1,1,1,1,0,0,0,0,1,0,1,1,0,1,1,1,1,1,1,1,1,1,1,0,0,0,0,0,0,0,0,0,0,0,0,0,0,0,0,0,0,0,0,0,0,0,0,0],"id":8,"left_children":[1,3,5,7,9,-1,11,13,15,17,19,21,23,25,27,29,31,33,35,-1,-1,-1,-1,37,-1,39,41,-1,43,45,47,49,51,53,55,57,59,61,-1,-1,-1,-1,-1,-1,-1,-1,-1,-1,-1,-1,-1,-1,-1,-1,-1,-1,-1,-1,-1,-1,-1,-1,-1],"loss_changes":[6.346576E11,4.4211798E11,3.9640944E11,1.19713186E11,3.8231264E11,0E0,9.494826E10,1.6207977E11,1.8768824E11,3.1549175E11,3.6596646E10,2.2140846E10,2.3705027E10,1.1604656E11,4.7981855E10,1.206576E11,4.101776E11,5.1167717E11,2.9268364E11,0E0,0E0,0E0,0E0,2.735127E10,0E0,1.3988538E11,1.2312875E11,0E0,1.4308676E10,1.5420883E10,1.1946066E11,6.535541E11,2.8474887E11,3.1710242E11,6.570062E11,1.8233913E11,3.1156912E11,2.1137551E9,0E0,0E0,0E0,0E0,0E0,0E0,0E0,0E0,0E0,0E0,0E0,0E0,0E0,0E0,0E0,0E0,0E0,0E0,0E0,0E0,0E0,0E0,0E0,0E0,0E0],"parents":[2147483647,0,0,1,1,2,2,3,3,4,4,6,6,7,7,8,8,9,9,10,10,11,11,12,12,13,13,14,14,15,15,16,16,17,17,18,18,23,23,25,25,26,26,28,28,29,29,30,30,31,31,32,32,33,33,34,34,35,35,36,36,37,37],"right_children":[2,4,6,8,10,-1,12,14,16,18,20,22,24,26,28,30,32,34,36,-1,-1,-1,-1,38,-1,40,42,-1,44,46,48,50,52,54,56,58,60,62,-1,-1,-1,-1,-1,-1,-1,-1,-1,-1,-1,-1,-1,-1,-1,-1,-1,-1,-1,-1,-1,-1,-1,-1,-1],"split_conditions":[7.5E0,2.5E0,1.25E2,2.5E0,1.475E2,1.9865862E5,2.125E2,8.7E1,1.5E0,1.555E2,1.67E2,5.855E2,2.05E1,1.35E1,5E-1,9.8770004E1,1.9925E3,1.535E2,1.87E2,1.508724E5,3.1138088E4,1.0131502E5,2.0102232E4,2.61E2,-2.5972627E3,2.055E2,3.85E1,8.156561E4,5E-1,2.0215E3,5E-1,1.976E3,2.0135E3,6.5E0,1E0,4.55E1,5E-1,4.5E0,4.6488793E4,1.146628E4,2.6804048E3,-6.983801E2,1.1578733E4,1.7439891E3,3.5432938E4,1.7907248E4,5.1347607E3,3.8305945E4,-4.8630117E3,-3.829806E4,1.1413102E5,-1.1115255E5,-1.8721332E4,3.2955703E4,8.390032E3,-9.945619E3,2.073407E5,-1.5296732E4,2.8520021E4,1.7085432E4,-9.824774E3,-2.5171594E3,1.1413991E4],"split_indices":[7,0,3,5,2,0,11,3,7,11,2,3,0,4,10,11,6,11,11,0,0,0,0,11,0,11,4,0,1,6,0,6,6,2,5,4,3,0,0,0,0,0,0,0,0,0,0,0,0,0,0,0,0,0,0,0,0,0,0,0,0,0,0],"split_type":[0,0,0,0,0,0,0,0,0,0,0,0,0,0,0,0,0,0,0,0,0,0,0,0,0,0,0,0,0,0,0,0,0,0,0,0,0,0,0,0,0,0,0,0,0,0,0,0,0,0,0,0,0,0,0,0,0,0,0,0,0,0,0],"sum_hessian":[1.933E3,1.92E3,1.3E1,1.383E3,5.37E2,1E0,1.2E1,1.16E3,2.23E2,5.35E2,2E0,3E0,9E0,1.154E3,6E0,2.02E2,2.1E1,1.94E2,3.41E2,1E0,1E0,2E0,1E0,7E0,2E0,6.64E2,4.9E2,2E0,4E0,4.4E1,1.58E2,9E0,1.2E1,1.9E2,4E0,6.9E1,2.72E2,3E0,4E0,3.74E2,2.9E2,4.01E2,8.9E1,2E0,2E0,3.1E1,1.3E1,5E0,1.53E2,6E0,3E0,5E0,7E0,9.4E1,9.6E1,2E0,2E0,6E1,9E0,2.26E2,4.6E1,1E0,2E0],"tree_param":{"num_deleted":"0","num_feature":"12","num_nodes":"63","size_leaf_vector":"0"}},{"base_weights":[1.7821486E4,1.6539023E4,1.925209E5,1.5370243E4,1.26862984E5,5.62866E5,1.20735445E5,9.022765E3,3.1784809E4,1.6858672E5,2.529224E4,2.6063345E5,7.160549E4,9.59692E3,-1.04390586E5,1.8115803E4,6.795344E4,9.430894E4,2.834249E5,6.0145445E4,-1.5884023E4,8.98265E4,-6.9260415E3,8.4123955E3,5.7225508E4,-1.873214E4,-1.6395138E5,-1.13351664E5,2.87148E4,3.0634684E5,4.6097656E4,1.2124317E5,2.3596797E4,3.773174E5,9.505744E4,1.8730922E4,-3.366598E4,3.628202E4,1.476866E5,1.046762E4,-2.5771766E4,2.7636553E4,5.0203606E5,-1.3620578E5,1.3011929E5,9.090191E4,1.5382022E4,1.0949902E5,6.7266775E5,1.1333351E5,-3.6272317E3,4.6391207E4,-7.131953E3],"categories":[],"categories_nodes":[],"categories_segments":[],"categories_sizes":[],"default_left":[1,1,1,1,1,0,1,1,1,1,1,0,1,1,1,1,1,1,1,0,1,1,0,1,1,0,0,1,1,1,1,0,0,0,0,0,0,1,0,0,0,0,0,0,0,0,0,0,0,0,0,0,0],"id":9,"left_children":[1,3,5,7,9,-1,11,13,15,17,19,-1,21,23,25,27,29,31,33,-1,35,37,-1,39,41,-1,-1,43,45,47,49,-1,-1,-1,-1,-1,-1,51,-1,-1,-1,-1,-1,-1,-1,-1,-1,-1,-1,-1,-1,-1,-1],"loss_changes":[4.301203E11,2.4575217E11,3.0423764E11,1.9788474E11,8.0494264E10,0E0,7.068857E10,9.040734E10,2.607952E11,9.2689465E10,1.1001225E10,0E0,1.6362308E10,7.664095E10,3.264204E10,5.411163E11,7.413679E11,1.6184812E10,5.2564623E10,0E0,3.0926802E9,2.252442E10,0E0,9.406173E10,4.2045427E11,0E0,0E0,1.7908816E11,2.9542914E11,7.916572E11,4.484126E11,0E0,0E0,0E0,0E0,0E0,0E0,2.9641395E9,0E0,0E0,0E0,0E0,0E0,0E0,0E0,0E0,0E0,0E0,0E0,0E0,0E0,0E0,0E0],"parents":[2147483647,0,0,1,1,2,2,3,3,4,4,6,6,7,7,8,8,9,9,10,10,12,12,13,13,14,14,15,15,16,16,17,17,18,18,20,20,21,21,23,23,24,24,27,27,28,28,29,29,30,30,37,37],"right_children":[2,4,6,8,10,-1,12,14,16,18,20,-1,22,24,26,28,30,32,34,-1,36,38,-1,40,42,-1,-1,44,46,48,50,-1,-1,-1,-1,-1,-1,52,-1,-1,-1,-1,-1,-1,-1,-1,-1,-1,-1,-1,-1,-1,-1],"split_conditions":[7.5E0,8.8E1,1.25E2,2.5E0,2.295E2,1.6885981E5,1E0,6.4E1,1.9925E3,2.5E0,3.1E2,7.819004E4,2.05E1,1.5E0,1E0,1.09E2,1.9965E3,2.5E0,2.2E1,1.8043635E4,2.5E0,1E1,-2.0778125E3,1.5E0,2.0205E3,-5.6196426E3,-4.9185414E4,3.5E0,1.555E2,2.5E0,9.7740005E1,3.6372953E4,7.0790396E3,1.1319523E5,2.8517232E4,5.619277E3,-1.0099795E4,3.525E2,4.430598E4,3.1402861E3,-7.73153E3,8.290966E3,1.5061083E5,-4.0861734E4,3.903579E4,2.7270572E4,4.614607E3,3.2849707E4,2.0180033E5,3.4000055E4,-1.0881696E3,1.3917362E4,-2.139586E3],"split_indices":[7,2,3,0,11,0,10,2,6,0,11,0,0,8,5,11,6,5,4,0,0,2,0,7,6,0,0,0,11,10,11,0,0,0,0,0,0,3,0,0,0,0,0,0,0,0,0,0,0,0,0,0,0],"split_type":[0,0,0,0,0,0,0,0,0,0,0,0,0,0,0,0,0,0,0,0,0,0,0,0,0,0,0,0,0,0,0,0,0,0,0,0,0,0,0,0,0,0,0,0,0,0,0,0,0,0,0,0,0],"sum_hessian":[1.933E3,1.92E3,1.3E1,1.901E3,1.9E1,1E0,1.2E1,1.372E3,5.29E2,1.3E1,6E0,2E0,1E1,1.366E3,6E0,3.85E2,1.44E2,9E0,4E0,3E0,3E0,8E0,2E0,1.334E3,3.2E1,3E0,3E0,2.8E1,3.57E2,1.1E1,1.33E2,6E0,3E0,2E0,2E0,1E0,2E0,5E0,3E0,1.259E3,7.5E1,3.1E1,1E0,2.6E1,2E0,6.2E1,2.95E2,8E0,3E0,5.6E1,7.7E1,4E0,1E0],"tree_param":{"num_deleted":"0","num_feature":"12","num_nodes":"53","size_leaf_vector":"0"}}]},"name":"gbtree"},"learner_model_param":{"base_score":"5E-1","boost_from_average":"1","num_class":"0","num_feature":"12","num_target":"1"},"objective":{"name":"reg:squarederror","reg_loss_param":{"scale_pos_weight":"1"}}},"version":[1,7,6]}