{"learner":{"attributes":{"best_iteration":"9","best_ntree_limit":"10","scikit_learn":"{\"n_estimators\": 10, \"objective\": \"reg:linear\", \"max_depth\": null, \"max_leaves\": null, \"max_bin\": null, \"grow_policy\": null, \"learning_rate\": null, \"verbosity\": null, \"booster\": null, \"tree_method\": null, \"gamma\": null, \"min_child_weight\": null, \"max_delta_step\": null, \"subsample\": null, \"sampling_method\": null, \"colsample_bytree\": null, \"colsample_bylevel\": null, \"colsample_bynode\": null, \"reg_alpha\": null, \"reg_lambda\": null, \"scale_pos_weight\": null, \"base_score\": null, \"missing\": NaN, \"num_parallel_tree\": null, \"random_state\": null, \"n_jobs\": null, \"monotone_constraints\": null, \"interaction_constraints\": null, \"importance_type\": null, \"gpu_id\": null, \"validate_parameters\": null, \"predictor\": null, \"enable_categorical\": false, \"feature_types\": null, \"max_cat_to_onehot\": null, \"max_cat_threshold\": null, \"eval_metric\": null, \"early_stopping_rounds\": null, \"callbacks\": null, \"kwargs\": {\"seed\": 20}, \"_estimator_type\": \"regressor\"}"},"feature_names":[],"feature_types":[],"gradient_booster":{"model":{"gbtree_model_param":{"num_parallel_tree":"1","num_trees":"10","size_leaf_vector":"0"},"tree_info":[0,0,0,0,0,0,0,0,0,0],"trees":[{"base_weights":[4.2921162E5,3.775377E5,1.2327241E6,3.2531406E5,6.255705E5,2.1086662E6,1.0359494E6,2.9575216E5,4.4367084E5,6.08616E5,1.425529E6,8.943153E5,2.6462048E6,8.3612044E5,1.5561121E6,3.3203516E5,2.5975344E5,4.333524E5,1.7558329E6,7.074924E5,4.929673E5,2.0249996E6,1.0853072E6,1.3637774E6,4.2890862E5,4.0018178E6,2.0407581E6,8.115047E5,2.0999998E6,1.8869112E6,1.2191838E6,3.0218753E5,3.7817034E5,2.3873008E5,3.1910466E5,5.2925325E5,3.9437403E5,6.7856125E5,1.4044701E6,4.22679E5,5.979372E5,5.249996E5,1.2759995E6,5.479997E5,1.518571E6,4.70444E5,1.61333E5,4.2819995E6,5.9999975E5,1.6604795E6,3.5339995E6,6.031452E5,9.444588E5,2.2844995E6,1.2309995E6,7.841662E5,1.3673699E6,4.40872E5,2.8964966E5,3.6182772E5,4.5411197E5,2.133371E5,2.6474506E5,3.0844156E5,4.228752E5,5.1354688E5,6.482821E5,3.6350206E5,5.2359034E5,6.474765E5,1.01442806E6,1.5593841E6,7.207996E5,3.3312506E5,4.7428153E5,5.7611706E5,9.738567E5,4.4749975E5,1.6224996E6,4.749975E4,1.9449975E5,1.3525995E6,2.4099995E6,9.7499975E5,3.9299995E6,8.106995E5,4.917605E5,7.703312E5,1.120444E6,1.4395829E6,3.1572218E6,4.149996E5,1.4899995E6,4.358329E5,9.707139E5],"categories":[],"categories_nodes":[],"categories_segments":[],"categories_sizes":[],"default_left":[1,1,1,1,1,1,1,1,1,1,1,1,1,1,1,1,1,1,0,1,1,0,1,1,1,1,1,1,0,1,1,1,1,1,1,1,1,1,1,1,1,0,0,0,1,0,1,0,0,1,1,1,1,1,1,1,0,0,0,0,0,0,0,0,0,0,0,0,0,0,0,0,0,0,0,0,0,0,0,0,0,0,0,0,0,0,0,0,0,0,0,0,0,0,0],"id":0,"left_children":[1,3,5,7,9,11,13,15,17,19,21,23,25,27,29,31,33,35,-1,37,39,-1,41,43,45,47,49,51,-1,53,55,57,59,61,63,65,67,69,71,73,75,-1,-1,-1,77,-1,79,-1,-1,81,83,85,87,89,91,93,-1,-1,-1,-1,-1,-1,-1,-1,-1,-1,-1,-1,-1,-1,-1,-1,-1,-1,-1,-1,-1,-1,-1,-1,-1,-1,-1,-1,-1,-1,-1,-1,-1,-1,-1,-1,-1,-1,-1],"loss_changes":[2.169784E14,6.355196E13,5.2282268E13,1.4102122E13,1.0728728E13,3.4840791E13,2.5724254E13,4.1691382E12,1.0219606E13,9.245118E12,1.2694543E12,3.5663873E12,2.3842555E13,4.2069876E12,5.612851E12,2.1151372E12,1.9701485E12,2.804144E12,0E0,8.1209443E12,2.6247367E12,0E0,7.1910294E11,3.0431982E11,4.6354006E10,7.9152053E12,1.0599451E13,4.638372E12,0E0,6.0544023E12,1.3773759E12,1.5902536E12,6.2005235E11,7.461499E11,3.4094658E11,9.706458E10,2.111421E12,3.8743122E12,6.764699E11,9.37234E11,7.0214746E11,0E0,0E0,0E0,5.313449E10,0E0,2.0877558E9,0E0,0E0,2.5092885E12,1.2350757E12,1.3583254E12,2.5996464E12,1.020246E13,2.5518104E12,3.5669987E11,0E0,0E0,0E0,0E0,0E0,0E0,0E0,0E0,0E0,0E0,0E0,0E0,0E0,0E0,0E0,0E0,0E0,0E0,0E0,0E0,0E0,0E0,0E0,0E0,0E0,0E0,0E0,0E0,0E0,0E0,0E0,0E0,0E0,0E0,0E0,0E0,0E0,0E0,0E0],"parents":[2147483647,0,0,1,1,2,2,3,3,4,4,5,5,6,6,7,7,8,8,9,9,10,10,11,11,12,12,13,13,14,14,15,15,16,16,17,17,19,19,20,20,22,22,23,23,24,24,25,25,26,26,27,27,29,29,30,30,31,31,32,32,33,33,34,34,35,35,36,36,37,37,38,38,39,39,40,40,44,44,46,46,49,49,50,50,51,51,52,52,53,53,54,54,55,55],"right_children":[2,4,6,8,10,12,14,16,18,20,22,24,26,28,30,32,34,36,-1,38,40,-1,42,44,46,48,50,52,-1,54,56,58,60,62,64,66,68,70,72,74,76,-1,-1,-1,78,-1,80,-1,-1,82,84,86,88,90,92,94,-1,-1,-1,-1,-1,-1,-1,-1,-1,-1,-1,-1,-1,-1,-1,-1,-1,-1,-1,-1,-1,-1,-1,-1,-1,-1,-1,-1,-1,-1,-1,-1,-1,-1,-1,-1,-1,-1,-1],"split_conditions":[2.5E0,1.5E0,1.305E2,6.525E2,6.6075E3,3.33E2,1.53E3,2.645E2,1.1E1,2.365E2,1.1E1,1.05E1,6.105E2,8.3E1,1.963E3,2.5E0,1.5E0,2.855E2,5.267499E5,7.2E1,3.5E0,6.0749994E5,1.17545E4,5E-1,1.175E2,1.135E2,2.5E0,9.165E2,6.2999994E5,6.5E0,2.376E3,5E-1,3.915E2,2.5E0,4.5E0,5.25E1,2.0375E3,1.9985E3,1.87E2,5E-1,3.5E0,1.5749989E5,3.8279988E5,1.643999E5,1E0,1.411332E5,1.255E2,1.2845999E6,1.7999994E5,1.245E2,1.1005E3,5E-1,3.5E0,3.5E0,4.5E0,4.5E0,4.1021097E5,1.3226161E5,8.68949E4,1.0854832E5,1.362336E5,6.400113E4,7.942352E4,9.253247E4,1.2686256E5,1.5406406E5,1.9448464E5,1.09050625E5,1.5707711E5,1.9424295E5,3.0432844E5,4.6781525E5,2.1623989E5,9.993752E4,1.4228447E5,1.7283512E5,2.9215703E5,1.3424994E5,4.867499E5,1.4249926E4,5.8349926E4,4.0577988E5,7.229999E5,2.9249994E5,1.1789999E6,2.4320986E5,1.4752816E5,2.3109936E5,3.3613322E5,4.3187488E5,9.4716656E5,1.2449988E5,4.4699988E5,1.30749875E5,2.912142E5],"split_indices":[9,9,0,4,4,4,4,0,8,0,5,5,4,5,7,8,12,0,0,3,6,0,4,2,0,0,10,7,0,8,4,8,4,8,8,5,4,4,0,2,12,0,0,0,6,0,0,0,0,0,4,12,12,9,9,8,0,0,0,0,0,0,0,0,0,0,0,0,0,0,0,0,0,0,0,0,0,0,0,0,0,0,0,0,0,0,0,0,0,0,0,0,0,0,0],"split_type":[0,0,0,0,0,0,0,0,0,0,0,0,0,0,0,0,0,0,0,0,0,0,0,0,0,0,0,0,0,0,0,0,0,0,0,0,0,0,0,0,0,0,0,0,0,0,0,0,0,0,0,0,0,0,0,0,0,0,0,0,0,0,0,0,0,0,0,0,0,0,0,0,0,0,0,0,0,0,0,0,0,0,0,0,0,0,0,0,0,0,0,0,0,0,0],"sum_hessian":[5.236E3,4.921E3,3.15E2,4.067E3,8.54E2,5.6E1,2.59E2,3.257E3,8.1E2,8.38E2,1.6E1,1.8E1,3.8E1,1.89E2,7E1,1.618E3,1.639E3,8.05E2,5E0,4.49E2,3.89E2,4E0,1.2E1,8E0,1E1,1E1,2.8E1,1.87E2,2E0,3.3E1,3.7E1,9.87E2,6.31E2,1.214E3,4.25E2,2.29E2,5.76E2,4.33E2,1.6E1,2.36E2,1.53E2,4E0,8E0,2E0,6E0,8E0,2E0,9E0,1E0,2.4E1,4E0,7.5E1,1.12E2,1.9E1,1.4E1,1.1E1,2.6E1,7.9E1,9.08E2,5.24E2,1.07E2,6.19E2,5.95E2,3.89E2,3.6E1,2.07E2,2.2E1,4.68E2,1.08E2,3.99E2,3.4E1,1.2E1,4E0,8.9E1,1.47E2,1.47E2,6E0,1E0,5E0,1E0,1E0,1.9E1,5E0,1E0,3E0,2.4E1,5.1E1,5.9E1,5.3E1,1.1E1,8E0,4E0,1E1,5E0,6E0],"tree_param":{"num_deleted":"0","num_feature":"13","num_nodes":"95","size_leaf_vector":"0"}},{"base_weights":[3.0320553E5,2.652934E5,8.927635E5,2.2820366E5,4.4145216E5,1.446281E6,7.083822E5,2.267596E5,1.6386872E6,4.282837E5,1.0653879E6,1.8056256E6,7.4010744E5,4.672423E5,9.6433094E5,2.129479E5,3.433245E5,4.196738E5,1.2701745E6,1.2815632E6,5.734854E5,1.387572E6,2.4366858E6,1.394168E6,5.373044E5,3.2825078E5,5.8266406E5,6.959917E5,1.2874235E6,1.9423244E5,2.5887427E5,2.9624016E5,4.0324522E5,3.6226456E5,5.1616788E5,1.7241382E6,6.529686E5,1.3630996E6,2.3309981E5,8.187445E5,1.7163728E6,3.1288155E6,1.0939055E6,2.4660981E5,1.5743578E6,3.419724E5,1.172105E6,3.9674088E5,1.9502922E5,7.753873E5,3.951694E5,7.247298E5,2.0618839E5,1.4708146E6,9.0114306E5,2.7186003E5,1.8319892E5,3.1269188E5,2.4094795E5,2.7605166E5,4.7822325E5,4.284133E5,3.1969675E5,4.8231816E5,3.2665528E5,4.459408E5,7.361325E5,7.20532E5,1.9135752E5,9.253097E5,3.21004E5,2.5946282E6,1.154647E6,3.5411565E6,7.114064E5,3.9566472E5,1.433717E6,3.7197088E5,-9.900019E4,4.2540734E4,4.3716028E5,2.4271127E5,-1.5631947E4,5.405727E5,9.5077825E5,3.006703E5,6.1079994E5,5.727874E5,9.206154E5,3.136664E5,2.9980896E4,1.5578045E6,8.164756E4,2.864035E5,1.04598006E6],"categories":[],"categories_nodes":[],"categories_segments":[],"categories_sizes":[],"default_left":[1,1,1,1,1,1,1,1,0,1,1,1,1,1,1,1,1,1,1,1,0,1,1,1,1,1,1,1,1,1,1,1,1,1,1,0,1,0,0,1,1,1,1,0,0,1,0,1,1,1,1,1,1,1,1,0,0,0,0,0,0,0,0,0,0,0,0,0,0,0,0,0,0,0,0,0,0,0,0,0,0,0,0,0,0,0,0,0,0,0,0,0,0,0,0],"id":1,"left_children":[1,3,5,7,9,11,13,15,-1,17,19,21,23,25,27,29,31,33,35,37,-1,39,41,43,45,47,49,51,53,55,57,59,61,63,65,-1,67,-1,-1,69,71,73,75,-1,-1,77,-1,79,81,83,85,87,89,91,93,-1,-1,-1,-1,-1,-1,-1,-1,-1,-1,-1,-1,-1,-1,-1,-1,-1,-1,-1,-1,-1,-1,-1,-1,-1,-1,-1,-1,-1,-1,-1,-1,-1,-1,-1,-1,-1,-1,-1,-1],"loss_changes":[1.1681741E14,3.2058039E13,3.1225905E13,7.914249E12,6.5686324E12,1.8456884E13,1.430037E13,6.471358E12,0E0,5.548494E12,1.07277713E12,1.0073594E13,2.9649829E12,1.8140721E12,9.074284E12,3.075851E12,1.09089233E12,4.4220044E12,1.1157037E12,6.2262765E11,0E0,4.766751E12,1.4235552E13,8.524168E11,2.4511E12,4.6096083E11,2.1146087E12,7.655087E11,2.2874476E12,2.1668362E12,9.3764505E11,7.64435E11,2.5414966E11,2.0868298E12,4.4295457E12,0E0,1.8060804E10,0E0,0E0,4.4555777E11,6.870899E12,9.442368E12,1.3308904E12,0E0,0E0,2.8816703E11,0E0,5.2543252E11,2.2477852E11,8.039348E11,5.4991834E11,1.2882448E12,8.528817E10,3.8606387E12,1.3921325E12,0E0,0E0,0E0,0E0,0E0,0E0,0E0,0E0,0E0,0E0,0E0,0E0,0E0,0E0,0E0,0E0,0E0,0E0,0E0,0E0,0E0,0E0,0E0,0E0,0E0,0E0,0E0,0E0,0E0,0E0,0E0,0E0,0E0,0E0,0E0,0E0,0E0,0E0,0E0,0E0],"parents":[2147483647,0,0,1,1,2,2,3,3,4,4,5,5,6,6,7,7,9,9,10,10,11,11,12,12,13,13,14,14,15,15,16,16,17,17,18,18,19,19,21,21,22,22,23,23,24,24,25,25,26,26,27,27,28,28,29,29,30,30,31,31,32,32,33,33,34,34,36,36,39,39,40,40,41,41,42,42,45,45,47,47,48,48,49,49,50,50,51,51,52,52,53,53,54,54],"right_children":[2,4,6,8,10,12,14,16,-1,18,20,22,24,26,28,30,32,34,36,38,-1,40,42,44,46,48,50,52,54,56,58,60,62,64,66,-1,68,-1,-1,70,72,74,76,-1,-1,78,-1,80,82,84,86,88,90,92,94,-1,-1,-1,-1,-1,-1,-1,-1,-1,-1,-1,-1,-1,-1,-1,-1,-1,-1,-1,-1,-1,-1,-1,-1,-1,-1,-1,-1,-1,-1,-1,-1,-1,-1,-1,-1,-1,-1,-1,-1],"split_conditions":[2.5E0,1.5E0,1.57E2,1.35E1,6.6075E3,1.85E1,5.155E2,1.043E3,4.916062E5,1.47E2,1.9145E3,2.0075E3,5E-1,1.8995E3,3.5E0,1.5E0,3.5E0,1.9785E3,5.75E2,6E0,1.7204562E5,3.56E2,1.8045E3,1.085E2,4.5E0,1.38E2,1.9395E3,4.97E2,7.5E0,1.145E2,1.645E2,6.228E3,5E-1,5E-1,2.5E0,5.172415E5,2.805E2,4.089299E5,6.9929945E4,1.988E3,5.375E2,8.5E0,2.5E0,7.3982945E4,4.7230734E5,5.43E3,3.516315E5,1.645E2,4.45E2,5E-1,1.974E3,2.915E2,1.8E1,5.5E0,4.5E0,8.1558016E4,5.495968E4,9.380756E4,7.228439E4,8.28155E4,1.4346698E5,1.28524E5,9.590903E4,1.4469545E5,9.7996586E4,1.3378225E5,2.2083977E5,2.1615961E5,5.7407258E4,2.775929E5,9.63012E4,7.783885E5,3.4639412E5,1.062347E6,2.1342192E5,1.1869942E5,4.3011512E5,1.11591266E5,-2.9700057E4,1.2762221E4,1.311481E5,7.281338E4,-4.6895845E3,1.6217181E5,2.852335E5,9.020109E4,1.8323998E5,1.7183622E5,2.7618462E5,9.409992E4,8.99427E3,4.6734138E5,2.449427E4,8.5921055E4,3.1379403E5],"split_indices":[9,9,0,8,4,5,4,4,0,3,7,7,12,7,9,12,8,7,4,12,0,4,4,0,12,4,7,0,8,0,0,4,10,12,12,0,0,0,0,7,4,8,12,0,0,4,0,0,0,10,7,0,3,9,9,0,0,0,0,0,0,0,0,0,0,0,0,0,0,0,0,0,0,0,0,0,0,0,0,0,0,0,0,0,0,0,0,0,0,0,0,0,0,0,0],"split_type":[0,0,0,0,0,0,0,0,0,0,0,0,0,0,0,0,0,0,0,0,0,0,0,0,0,0,0,0,0,0,0,0,0,0,0,0,0,0,0,0,0,0,0,0,0,0,0,0,0,0,0,0,0,0,0,0,0,0,0,0,0,0,0,0,0,0,0,0,0,0,0,0,0,0,0,0,0,0,0,0,0,0,0,0,0,0,0,0,0,0,0,0,0,0,0],"sum_hessian":[5.236E3,4.921E3,3.15E2,4.067E3,8.54E2,7.7E1,2.38E2,4.064E3,3E0,8.38E2,1.6E1,5E1,2.7E1,1.24E2,1.14E2,3.636E3,4.28E2,8.31E2,7E0,1E1,6E0,3.2E1,1.8E1,5E0,2.2E1,5.8E1,6.6E1,6.4E1,5E1,2.587E3,1.049E3,2.43E2,1.85E2,5.24E2,3.07E2,3E0,4E0,9E0,1E0,1.3E1,1.9E1,1.1E1,7E0,1E0,4E0,1.8E1,4E0,3.7E1,2.1E1,3.1E1,3.5E1,6E1,4E0,3.2E1,1.8E1,3.19E2,2.268E3,2.58E2,7.91E2,2.21E2,2.2E1,1.39E2,4.6E1,1.17E2,4.07E2,2.35E2,7.2E1,3E0,1E0,1E1,3E0,6E0,1.3E1,9E0,2E0,3E0,4E0,1.7E1,1E0,4E0,3.3E1,1.7E1,4E0,1.5E1,1.6E1,2.6E1,9E0,3.6E1,2.4E1,2E0,2E0,3E1,2E0,4E0,1.4E1],"tree_param":{"num_deleted":"0","num_feature":"13","num_nodes":"95","size_leaf_vector":"0"}},{"base_weights":[2.1414622E5,1.8637258E5,6.460693E5,1.600486E5,3.1140134E5,1.1634706E6,5.301541E5,1.5891703E5,1.2699826E6,2.8491753E5,5.2027266E5,1.5297152E6,5.1127634E5,4.1703922E5,8.372252E5,1.3739864E5,2.0698817E5,2.7398306E5,8.487798E5,4.0075534E5,7.3267625E5,1.7989695E6,6.4975725E5,2.1023466E5,7.932058E5,3.9886372E5,1.4291415E6,2.1708105E6,7.6501656E5,1.5292327E5,9.7065305E4,2.3750561E5,1.6027739E5,3.3930216E5,2.0414284E5,1.179172E6,4.5358912E5,3.1307975E5,8.34128E5,6.0744E5,1.4887791E6,7.281101E5,2.211536E6,-2.0551438E4,8.199034E5,2.472029E5,1.6928896E4,2.3209728E5,1.0806825E6,3.780918E5,1.0918065E6,1.9013291E6,2.4238303E5,3.942148E5,8.7361675E5,2.0792962E5,1.4514264E5,7.644138E4,1.1867948E5,2.2540486E5,3.343665E5,1.4905556E5,3.968117E5,4.106332E5,2.3533083E5,1.618217E5,3.477128E5,1.3214828E6,1.6265389E5,5.8106306E5,4.7444926E4,3.2186097E5,-7.6162766E4,1.168658E6,2.6586634E5,7.042668E5,3.032589E5,4.6663312E5,1.0955198E6,1.7701392E6,3.4242395E6,-3.7239906E4,6.41275E3,1.0062002E5,3.281548E5,-1.5420844E4,4.0814188E4,3.321967E5,-8.415016E4,1.2086915E6,1.5631419E5,6.881075E5,3.4687344E5,5.979651E5,1.4666289E5,7.39792E5,1.2078898E6],"categories":[],"categories_nodes":[],"categories_segments":[],"categories_sizes":[],"default_left":[1,1,1,1,1,1,1,1,0,1,1,1,1,1,1,1,1,1,1,1,1,1,1,1,1,1,1,0,1,1,1,1,1,1,1,1,1,1,1,1,0,1,1,1,0,1,1,1,1,1,0,0,0,1,1,0,0,0,0,0,0,0,0,0,0,0,0,0,0,0,0,0,0,0,0,0,0,0,0,0,0,0,0,0,0,0,0,0,0,0,0,0,0,0,0,0,0],"id":2,"left_children":[1,3,5,7,9,11,13,15,-1,17,19,21,23,25,27,29,31,33,35,37,39,41,43,45,47,49,51,-1,53,55,57,59,61,63,65,67,69,71,73,75,-1,77,79,81,-1,83,85,87,89,91,-1,-1,-1,93,95,-1,-1,-1,-1,-1,-1,-1,-1,-1,-1,-1,-1,-1,-1,-1,-1,-1,-1,-1,-1,-1,-1,-1,-1,-1,-1,-1,-1,-1,-1,-1,-1,-1,-1,-1,-1,-1,-1,-1,-1,-1,-1],"loss_changes":[6.2703033E13,1.6149748E13,1.8335173E13,4.907403E12,4.581371E12,1.2833069E13,8.681773E12,4.176453E12,0E0,4.459422E12,2.1180396E12,7.3606764E12,1.7004359E12,2.961898E12,4.9837433E12,1.7452918E12,1.7509248E12,3.3430364E12,1.2930903E12,2.1326106E12,2.220475E12,1.0318374E13,1.1573545E12,8.156928E10,1.5235385E12,2.3220107E12,1.2202688E12,0E0,2.353642E12,8.377745E11,3.4041076E11,8.118998E11,1.2653722E12,2.7586692E12,2.155413E12,7.976853E11,3.8661377E11,2.090871E11,1.5902992E12,6.700107E11,0E0,3.5341625E11,4.1090002E12,1.5887832E9,0E0,8.564271E10,2.947438E9,1.8623529E11,6.3935663E11,1.5614534E12,0E0,0E0,0E0,7.697599E11,1.387849E12,0E0,0E0,0E0,0E0,0E0,0E0,0E0,0E0,0E0,0E0,0E0,0E0,0E0,0E0,0E0,0E0,0E0,0E0,0E0,0E0,0E0,0E0,0E0,0E0,0E0,0E0,0E0,0E0,0E0,0E0,0E0,0E0,0E0,0E0,0E0,0E0,0E0,0E0,0E0,0E0,0E0,0E0],"parents":[2147483647,0,0,1,1,2,2,3,3,4,4,5,5,6,6,7,7,9,9,10,10,11,11,12,12,13,13,14,14,15,15,16,16,17,17,18,18,19,19,20,20,21,21,22,22,23,23,24,24,25,25,26,26,28,28,29,29,30,30,31,31,32,32,33,33,34,34,35,35,36,36,37,37,38,38,39,39,41,41,42,42,43,43,45,45,46,46,47,47,48,48,49,49,53,53,54,54],"right_children":[2,4,6,8,10,12,14,16,-1,18,20,22,24,26,28,30,32,34,36,38,40,42,44,46,48,50,52,-1,54,56,58,60,62,64,66,68,70,72,74,76,-1,78,80,82,-1,84,86,88,90,92,-1,-1,-1,94,96,-1,-1,-1,-1,-1,-1,-1,-1,-1,-1,-1,-1,-1,-1,-1,-1,-1,-1,-1,-1,-1,-1,-1,-1,-1,-1,-1,-1,-1,-1,-1,-1,-1,-1,-1,-1,-1,-1,-1,-1,-1,-1],"split_conditions":[2.5E0,1.5E0,1.305E2,1.35E1,1.9985E3,1.85E1,1.5675E3,3.815E2,3.809948E5,8.35E1,2.5E0,1.6935E3,4.5E0,8.3E1,1.5965E3,3.745E2,4.515E2,1E0,2.0065E3,6.6075E3,2.005E3,3.33E2,2.1075E3,3.45E1,1.9485E3,1.15E1,2.46E2,6.512432E5,2.403E3,8.95E1,8.78E2,4.75E1,5.6185E3,2.45E2,4.65E1,4.5E0,1.225E2,6.4635E3,2.65E1,3.055E2,4.4663375E5,3E1,1.1005E3,8.65E1,2.4597102E5,6E1,1.225E2,1.195E2,5E-1,1.56E2,3.2754197E5,5.7039875E5,7.2714914E4,2.05E2,5.5E0,6.237889E4,4.3542793E4,2.2932416E4,3.5603844E4,6.762146E4,1.0030995E5,4.471667E4,1.1904351E5,1.2318996E5,7.059925E4,4.854651E4,1.0431385E5,3.9644484E5,4.8796168E4,1.7431892E5,1.4233479E4,9.65583E4,-2.284883E4,3.505974E5,7.975991E4,2.1128005E5,9.097767E4,1.3998994E5,3.2865594E5,5.310418E5,1.0272719E6,-1.1171973E4,1.9238251E3,3.0186008E4,9.8446445E4,-4.6262534E3,1.2244257E4,9.965901E4,-2.5245049E4,3.6260747E5,4.6894258E4,2.0643227E5,1.0406204E5,1.7938955E5,4.3998867E4,2.2193761E5,3.6236694E5],"split_indices":[9,9,0,8,4,5,4,4,0,3,12,4,8,5,4,0,0,5,7,4,7,4,4,3,7,8,0,0,4,0,7,5,4,0,5,8,0,4,5,0,0,3,4,0,0,0,0,0,1,0,0,0,0,0,12,0,0,0,0,0,0,0,0,0,0,0,0,0,0,0,0,0,0,0,0,0,0,0,0,0,0,0,0,0,0,0,0,0,0,0,0,0,0,0,0,0,0],"split_type":[0,0,0,0,0,0,0,0,0,0,0,0,0,0,0,0,0,0,0,0,0,0,0,0,0,0,0,0,0,0,0,0,0,0,0,0,0,0,0,0,0,0,0,0,0,0,0,0,0,0,0,0,0,0,0,0,0,0,0,0,0,0,0,0,0,0,0,0,0,0,0,0,0,0,0,0,0,0,0,0,0,0,0,0,0,0,0,0,0,0,0,0,0,0,0,0,0],"sum_hessian":[5.236E3,4.921E3,3.15E2,4.067E3,8.54E2,5.6E1,2.59E2,4.064E3,3E0,7.6E2,9.4E1,3.5E1,2.1E1,1.91E2,6.8E1,2.81E3,1.254E3,7.47E2,1.3E1,6.2E1,3.2E1,2.6E1,9E0,1.1E1,1E1,1.89E2,2E0,2E0,6.6E1,2.027E3,7.83E2,7.56E2,4.98E2,3.84E2,3.63E2,6E0,7E0,5.3E1,9E0,2.9E1,3E0,8E0,1.8E1,2E0,7E0,9E0,2E0,4E0,6E0,1.85E2,4E0,1E0,1E0,1.6E1,5E1,2.48E2,1.779E3,4.03E2,3.8E2,6.75E2,8.1E1,4.77E2,2.1E1,2.26E2,1.58E2,2.82E2,8.1E1,5E0,1E0,5E0,2E0,5.2E1,1E0,5E0,4E0,2.1E1,8E0,6E0,2E0,1.5E1,3E0,1E0,1E0,4E0,5E0,1E0,1E0,3E0,1E0,5E0,1E0,1.5E1,1.7E2,8E0,8E0,3.8E1,1.2E1],"tree_param":{"num_deleted":"0","num_feature":"13","num_nodes":"97","size_leaf_vector":"0"}},{"base_weights":[1.5157019E5,1.3109277E5,4.7004575E5,1.1224963E5,2.205931E5,7.9378844E5,3.6242244E5,9.7081516E4,1.7389797E5,1.9571133E5,3.5069812E5,4.1227194E5,1.02364725E6,2.51001E5,5.577303E5,1.392963E5,9.075376E4,1.7057494E5,1.4178242E6,1.9042473E5,1.0944049E6,4.74741E5,2.706872E5,1.0201044E6,3.1071472E5,1.717944E6,7.9572856E5,1.7372884E5,5.1861662E5,4.1269088E5,8.285771E5,3.6307628E5,1.19480914E5,8.281174E4,1.3490497E5,1.6217994E5,2.9085075E5,3.003969E5,1.7064208E5,1.7375127E5,5.606941E5,2.0211364E5,4.982525E5,1.6506044E5,1.2500989E6,8.421041E4,3.9710594E5,1.8621848E6,1.377679E5,1.0200735E6,2.2464173E5,2.2759423E5,1.00036875E4,6.466606E5,1.4664489E5,4.6010444E5,1.5200625E3,1.1084401E6,3.9886562E5,4.3695025E5,1.571229E4,1.0461174E5,1.6735056E5,4.8812992E4,8.984912E4,9.05044E4,1.5565984E5,1.5541005E5,3.25368E5,3.2447538E5,3.3142332E4,4.9062944E5,1.7190608E5,2.4355295E5,1.4900922E5,2.1982184E5,1.5136977E4,4.727704E5,8.5329275E5,2.6770428E5,1.4501278E5,3.9715227E4,6.1788144E5,1.3003988E5,-5.0795168E4,4.9575662E5,2.2144878E5,1.0395326E5,1.2235575E6,-1.4484831E5,5.092558E5,1.3492058E5,3.5329903E5,8.630805E4,-1.3657769E5,2.9316206E5,8.2718094E5,3.4603444E5,1.1758736E4,6.526324E5,2.8490525E5,-3.466928E4,1.0932806E5,1.547621E6,2.599502E5,-1.0024525E5,4.4881197E5],"categories":[],"categories_nodes":[],"categories_segments":[],"categories_sizes":[],"default_left":[1,1,1,1,1,1,1,1,1,1,1,1,1,1,1,1,1,1,0,1,0,1,1,1,1,1,1,1,1,1,1,1,1,1,1,1,1,1,1,1,1,1,1,0,0,1,1,0,0,1,1,1,1,1,1,1,1,1,1,0,0,0,0,0,0,0,0,0,0,0,0,0,0,0,0,0,0,0,0,0,0,0,0,0,0,0,0,0,0,0,0,0,0,0,0,0,0,0,0,0,0,0,0,0,0,0,0],"id":3,"left_children":[1,3,5,7,9,11,13,15,17,19,21,23,25,27,29,31,33,35,-1,37,-1,39,41,43,45,47,49,51,53,55,57,59,61,63,65,67,69,71,73,75,77,79,81,-1,-1,83,85,-1,-1,87,89,91,93,95,97,99,101,103,105,-1,-1,-1,-1,-1,-1,-1,-1,-1,-1,-1,-1,-1,-1,-1,-1,-1,-1,-1,-1,-1,-1,-1,-1,-1,-1,-1,-1,-1,-1,-1,-1,-1,-1,-1,-1,-1,-1,-1,-1,-1,-1,-1,-1,-1,-1,-1,-1],"loss_changes":[3.4091773E13,8.276033E12,1.072247E13,3.7870622E12,2.6992066E12,6.418191E12,5.0610024E12,8.600546E11,3.073307E12,3.2123398E12,1.2212649E12,1.5966614E12,6.2286547E12,3.094504E12,3.0364328E12,1.8367575E12,9.860767E11,7.616101E11,0E0,1.5086031E12,0E0,1.2478715E12,1.2257182E12,5.8027986E11,5.1446284E11,2.2506363E12,4.6394245E12,1.0648363E12,1.5245477E12,1.1300137E12,3.0454338E12,8.6561364E11,2.6080025E11,5.729524E11,3.8401212E11,7.7911294E11,4.3117865E11,2.555516E12,9.258423E11,9.166943E10,6.2564336E11,2.121133E11,1.0176923E12,0E0,0E0,6.2290514E10,2.367897E11,0E0,0E0,4.9060354E12,1.3357097E12,1.01243945E12,3.585165E11,1.3528444E12,2.6487992E11,1.5680615E12,3.110083E10,5.932583E12,3.690652E11,0E0,0E0,0E0,0E0,0E0,0E0,0E0,0E0,0E0,0E0,0E0,0E0,0E0,0E0,0E0,0E0,0E0,0E0,0E0,0E0,0E0,0E0,0E0,0E0,0E0,0E0,0E0,0E0,0E0,0E0,0E0,0E0,0E0,0E0,0E0,0E0,0E0,0E0,0E0,0E0,0E0,0E0,0E0,0E0,0E0,0E0,0E0,0E0],"parents":[2147483647,0,0,1,1,2,2,3,3,4,4,5,5,6,6,7,7,8,8,9,9,10,10,11,11,12,12,13,13,14,14,15,15,16,16,17,17,19,19,21,21,22,22,23,23,24,24,25,25,26,26,27,27,28,28,29,29,30,30,31,31,32,32,33,33,34,34,35,35,36,36,37,37,38,38,39,39,40,40,41,41,42,42,45,45,46,46,49,49,50,50,51,51,52,52,53,53,54,54,55,55,56,56,57,57,58,58],"right_children":[2,4,6,8,10,12,14,16,18,20,22,24,26,28,30,32,34,36,-1,38,-1,40,42,44,46,48,50,52,54,56,58,60,62,64,66,68,70,72,74,76,78,80,82,-1,-1,84,86,-1,-1,88,90,92,94,96,98,100,102,104,106,-1,-1,-1,-1,-1,-1,-1,-1,-1,-1,-1,-1,-1,-1,-1,-1,-1,-1,-1,-1,-1,-1,-1,-1,-1,-1,-1,-1,-1,-1,-1,-1,-1,-1,-1,-1,-1,-1,-1,-1,-1,-1,-1,-1,-1,-1,-1,-1],"split_conditions":[2.5E0,1.5E0,1.57E2,3.5E0,1.4945E3,3.56E2,5E-1,1.145E2,2.25E1,1.625E2,2.045E2,5E-1,6.105E2,4.5E0,3.5E0,5E-1,3.5E0,5.15E1,4.2534728E5,9.95E1,3.2832147E5,5E-1,5.5E0,5E-1,1E0,1.135E2,5.5E0,7E0,1.5E0,4.085E2,1.9615E3,2.01E3,1.33E2,1.5E0,1.9355E3,6.5E0,1.5E0,2.0165E3,5E-1,1.74E2,2.0025E3,9E0,2.43E2,4.9518133E4,3.750297E5,1.32E2,3.9E1,5.5865544E5,4.1330375E4,1.935E3,4E0,2.5E0,2.5E0,2.5E0,3.01E2,1.9305E3,5.465E2,7.5E0,1.5E0,1.3108508E5,4.713687E3,3.1383523E4,5.020517E4,1.4643898E4,2.6954736E4,2.715132E4,4.6697953E4,4.6623016E4,9.761041E4,9.734262E4,9.9427E3,1.4718884E5,5.1571824E4,7.306589E4,4.4702766E4,6.5946555E4,4.5410933E3,1.4183112E5,2.5598783E5,8.031129E4,4.3503836E4,1.1914568E4,1.8536444E5,3.9011965E4,-1.5238551E4,1.48727E5,6.643464E4,3.1185979E4,3.6706725E5,-4.3454496E4,1.5277675E5,4.0476176E4,1.0598971E5,2.5892416E4,-4.097331E4,8.7948625E4,2.481543E5,1.03810336E5,3.527621E3,1.9578972E5,8.547158E4,-1.0400785E4,3.279842E4,4.642863E5,7.798506E4,-3.0073576E4,1.346436E5],"split_indices":[9,9,0,8,4,4,11,0,8,3,0,12,4,9,9,8,6,5,0,0,0,2,8,2,6,0,8,3,3,0,7,7,4,8,7,8,10,7,12,0,7,5,0,0,0,0,4,0,0,7,9,6,10,6,0,7,0,8,6,0,0,0,0,0,0,0,0,0,0,0,0,0,0,0,0,0,0,0,0,0,0,0,0,0,0,0,0,0,0,0,0,0,0,0,0,0,0,0,0,0,0,0,0,0,0,0,0],"split_type":[0,0,0,0,0,0,0,0,0,0,0,0,0,0,0,0,0,0,0,0,0,0,0,0,0,0,0,0,0,0,0,0,0,0,0,0,0,0,0,0,0,0,0,0,0,0,0,0,0,0,0,0,0,0,0,0,0,0,0,0,0,0,0,0,0,0,0,0,0,0,0,0,0,0,0,0,0,0,0,0,0,0,0,0,0,0,0,0,0,0,0,0,0,0,0,0,0,0,0,0,0,0,0,0,0,0,0],"sum_hessian":[5.236E3,4.921E3,3.15E2,4.067E3,8.54E2,7.7E1,2.38E2,3.266E3,8.01E2,7.19E2,1.35E2,3E1,4.7E1,1.53E2,8.5E1,4.23E2,2.843E3,8E2,1E0,7.16E2,3E0,5.1E1,8.4E1,3E0,2.7E1,1E1,3.7E1,1.2E2,3.3E1,5.7E1,2.8E1,3.3E1,3.9E2,2.412E3,4.31E2,7.5E2,5E1,1.07E2,6.09E2,1.2E1,3.9E1,6.6E1,1.8E1,1E0,2E0,8E0,1.9E1,9E0,1E0,2.6E1,1.1E1,9E1,3E1,2.4E1,9E0,5.1E1,6E0,1.6E1,1.2E1,2.7E1,6E0,3E2,9E1,4.15E2,1.997E3,1.39E2,2.92E2,7.22E2,2.8E1,4.4E1,6E0,4.2E1,6.5E1,1.37E2,4.72E2,9E0,3E0,3.2E1,7E0,2.9E1,3.7E1,4E0,1.4E1,6E0,2E0,1.1E1,8E0,5E0,2.1E1,5E0,6E0,5.3E1,3.7E1,2E1,1E1,9E0,1.5E1,3E0,6E0,2.3E1,2.8E1,5E0,1E0,1E1,6E0,1E0,1.1E1],"tree_param":{"num_deleted":"0","num_feature":"13","num_nodes":"107","size_leaf_vector":"0"}},{"base_weights":[1.07195234E5,9.226148E4,3.394636E5,8.351429E4,2.1654877E5,6.357895E5,2.731942E5,7.96683E4,2.3415839E5,1.7652995E5,3.53607E5,8.773739E5,2.1157005E5,2.0877734E5,4.4848178E5,5.7563875E4,9.588045E4,2.1490048E5,1.2051508E6,1.376806E5,2.7756988E5,5.5618144E5,2.1205548E5,6.9016225E5,1.5543702E6,1.4688206E5,7.8500875E5,1.9464847E5,1.03401306E6,1.927481E6,3.9838647E5,7.711769E4,3.2239475E4,8.3936945E4,1.4606177E5,1.9302352E5,5.728693E5,8.572355E4,1.8240081E5,1.7556119E5,4.395242E5,1.1475281E6,3.5202453E5,9.8513195E4,5.437266E5,2.7298984E5,9.1731525E5,1.9958758E6,3.004043E5,7.337685E4,4.4093503E5,1.8100408E5,6.6329056E5,1.3839866E6,1.67033E5,3.448424E5,8.1572156E5,7.434959E4,5.5652375E5,1.2961864E4,5.29305E4,9.598875E4,5.103608E4,1.6793806E5,6.9557914E4,2.983481E5,1.5937902E5,6.386968E5,1.2186594E5,1.3891202E5,1.3482829E4,-1.5271765E4,2.1281277E5,-4.8662938E4,1.8739717E5,4.0647805E4,4.8978425E5,1.8321465E6,1.760278E5,1.6083717E5,7.660475E5,6.612845E4,5.836049E5,1.4865895E5,6.150018E5,1.790394E5,3.6871256E5,1.1800141E6,1.5146527E5,4.6053312E5,-9.926672E3,1.4666219E5,8.23625E1,2.2017438E5,3.2528113E4,4.302745E5,9.3388375E4,1.278269E6,1.4924375E5],"categories":[],"categories_nodes":[],"categories_segments":[],"categories_sizes":[],"default_left":[1,1,1,1,1,1,1,1,1,1,1,1,1,1,1,1,1,1,0,1,1,1,1,1,1,1,0,1,1,0,1,1,1,1,1,1,1,1,1,1,1,1,1,1,1,1,1,0,1,1,0,1,0,0,0,1,1,0,0,0,0,0,0,0,0,0,0,0,0,0,0,0,0,0,0,0,0,0,0,0,0,0,0,0,0,0,0,0,0,0,0,0,0,0,0,0,0,0,0],"id":4,"left_children":[1,3,5,7,9,11,13,15,17,19,21,23,25,27,29,31,33,35,-1,37,39,41,43,45,47,49,-1,51,53,-1,55,57,59,61,63,65,67,69,71,73,75,77,79,81,83,85,87,-1,89,91,-1,93,-1,-1,-1,95,97,-1,-1,-1,-1,-1,-1,-1,-1,-1,-1,-1,-1,-1,-1,-1,-1,-1,-1,-1,-1,-1,-1,-1,-1,-1,-1,-1,-1,-1,-1,-1,-1,-1,-1,-1,-1,-1,-1,-1,-1,-1,-1],"loss_changes":[1.8133956E13,5.332936E12,6.031707E12,2.6464674E12,1.709203E12,5.6560085E12,2.8421485E12,1.6024443E12,1.87273E12,9.509688E11,1.9466394E12,3.4899294E12,7.0077737E11,2.0373826E12,4.3443898E12,9.3886716E11,1.5382358E12,7.743571E11,0E0,4.118935E11,1.0627685E12,3.097139E12,1.6034185E12,2.5924406E12,3.2758594E12,4.2154852E11,0E0,1.09486696E12,6.7908875E11,0E0,1.2382204E12,1.3812095E12,3.3037903E11,8.246096E11,8.184335E11,3.3515766E11,1.00295246E11,3.3241353E11,5.92388E11,1.2589138E11,5.0132786E11,4.3332393E12,1.6973782E12,4.9553244E11,2.1831824E11,4.1904243E10,3.6438404E12,0E0,1.5365036E11,9.667332E10,0E0,1.0745859E12,0E0,0E0,0E0,1.2917156E12,1.96717E12,0E0,0E0,0E0,0E0,0E0,0E0,0E0,0E0,0E0,0E0,0E0,0E0,0E0,0E0,0E0,0E0,0E0,0E0,0E0,0E0,0E0,0E0,0E0,0E0,0E0,0E0,0E0,0E0,0E0,0E0,0E0,0E0,0E0,0E0,0E0,0E0,0E0,0E0,0E0,0E0,0E0,0E0],"parents":[2147483647,0,0,1,1,2,2,3,3,4,4,5,5,6,6,7,7,8,8,9,9,10,10,11,11,12,12,13,13,14,14,15,15,16,16,17,17,19,19,20,20,21,21,22,22,23,23,24,24,25,25,27,27,28,28,30,30,31,31,32,32,33,33,34,34,35,35,36,36,37,37,38,38,39,39,40,40,41,41,42,42,43,43,44,44,45,45,46,46,48,48,49,49,51,51,55,55,56,56],"right_children":[2,4,6,8,10,12,14,16,18,20,22,24,26,28,30,32,34,36,-1,38,40,42,44,46,48,50,-1,52,54,-1,56,58,60,62,64,66,68,70,72,74,76,78,80,82,84,86,88,-1,90,92,-1,94,-1,-1,-1,96,98,-1,-1,-1,-1,-1,-1,-1,-1,-1,-1,-1,-1,-1,-1,-1,-1,-1,-1,-1,-1,-1,-1,-1,-1,-1,-1,-1,-1,-1,-1,-1,-1,-1,-1,-1,-1,-1,-1,-1,-1,-1,-1],"split_conditions":[2.5E0,2.5E0,1.305E2,3.1045E3,1.9915E3,1.85E1,1.5675E3,2.5E0,2.1E1,1.1085E3,1E0,2.018E3,9.55E1,8.3E1,1.584E3,2.625E2,1.9835E3,2.74525E4,3.6154525E5,1.8745E3,5E-1,1.9945E3,5.8E1,1.095E2,1.8045E3,4.5E0,2.3550264E5,1.15E1,2.46E2,5.782443E5,2.4841E4,2.615E2,1.909E3,4.895E2,2.0175E3,3.782E3,1.5E0,1.5E0,1E0,1.74E2,3.5E0,2.505E2,4.5E0,2.5E0,1.5E0,1E1,5.5E0,5.9876275E5,5.75E1,5E-1,1.3228052E5,2.5E0,1.9898717E5,4.15196E5,5.0109902E4,2.5E0,2E0,2.2304879E4,1.6695712E5,3.8885593E3,1.587915E4,2.8796627E4,1.5310824E4,5.038142E4,2.0867375E4,8.950443E4,4.7813707E4,1.9160905E5,3.655978E4,4.1673605E4,4.0448489E3,-4.58153E3,6.3843832E4,-1.4598882E4,5.6219152E4,1.2194342E4,1.4693528E5,5.49644E5,5.280834E4,4.8251152E4,2.2981427E5,1.9838537E4,1.7508147E5,4.4597688E4,1.8450055E5,5.3711824E4,1.1061377E5,3.5400425E5,4.5439582E4,1.3815994E5,-2.9780017E3,4.3998656E4,2.4708752E1,6.605231E4,9.758435E3,1.2908235E5,2.8016514E4,3.8348072E5,4.4773125E4],"split_indices":[9,12,0,4,7,5,4,8,8,4,5,7,5,5,4,0,7,4,0,7,11,7,5,0,4,12,0,8,0,0,4,0,7,0,7,4,12,9,6,0,8,4,8,10,9,3,8,0,0,11,0,10,0,0,0,3,10,0,0,0,0,0,0,0,0,0,0,0,0,0,0,0,0,0,0,0,0,0,0,0,0,0,0,0,0,0,0,0,0,0,0,0,0,0,0,0,0,0,0],"split_type":[0,0,0,0,0,0,0,0,0,0,0,0,0,0,0,0,0,0,0,0,0,0,0,0,0,0,0,0,0,0,0,0,0,0,0,0,0,0,0,0,0,0,0,0,0,0,0,0,0,0,0,0,0,0,0,0,0,0,0,0,0,0,0,0,0,0,0,0,0,0,0,0,0,0,0,0,0,0,0,0,0,0,0,0,0,0,0,0,0,0,0,0,0,0,0,0,0,0,0],"sum_hessian":[5.236E3,4.921E3,3.15E2,4.599E3,3.22E2,5.6E1,2.59E2,4.486E3,1.13E2,2.51E2,7.1E1,3.5E1,2.1E1,1.91E2,6.8E1,1.9E3,2.586E3,1.12E2,1E0,1.83E2,6.8E1,2.8E1,4.3E1,2.9E1,6E0,2E1,1E0,1.89E2,2E0,1E0,6.7E1,1.071E3,8.29E2,2.091E3,4.95E2,1.07E2,5E0,8.6E1,9.7E1,4.3E1,2.5E1,6E0,2.2E1,3.3E1,1E1,1.1E1,1.8E1,4E0,2E0,1.7E1,3E0,1.85E2,4E0,1E0,1E0,6.1E1,6E0,1.066E3,5E0,4.3E2,3.99E2,1.529E3,5.62E2,3.84E2,1.11E2,2.4E1,8.3E1,4E0,1E0,4.9E1,3.7E1,1.3E1,8.4E1,2E0,4.1E1,3E0,2.2E1,3E0,3E0,1.6E1,6E0,3.2E1,1E0,2E0,8E0,7E0,4E0,1.3E1,5E0,1E0,1E0,8E0,9E0,1.46E2,3.9E1,4.5E1,1.6E1,3E0,3E0],"tree_param":{"num_deleted":"0","num_feature":"13","num_nodes":"99","size_leaf_vector":"0"}},{"base_weights":[7.623485E4,6.760191E4,3.1294497E5,6.5054816E4,3.7000588E5,2.4945375E5,8.511868E5,6.0245906E4,1.8108427E5,1.3337631E5,5.7906106E5,2.2469356E5,7.103809E5,1.1746729E6,2.5955942E5,5.93199E4,5.4814106E5,1.5055102E5,4.3272078E5,3.7116884E5,-4.150899E4,1.1864248E6,2.7714816E5,4.574394E5,2.0600297E5,2.8651516E5,1.0626178E6,9.8377086E4,1.3800942E6,3.1111903E5,-5.0678906E4,7.17005E4,3.300879E4,1.0620358E6,1.14187805E5,4.335072E5,1.239153E5,6.253538E5,2.0074952E5,1.22404805E5,8.2789525E5,-2.9428072E5,1.5325844E5,2.755778E5,1.495648E6,3.6482975E5,-7.7104E4,5.1058297E5,-3.6998062E4,-3.2690337E3,2.2435722E5,7.259635E4,4.049289E5,1.842017E6,5.4976825E5,2.890161E4,3.533383E5,1.15580414E5,5.8013164E4,2.1939965E4,7.245643E4,-1.9570229E4,1.8595938E5,1.7912511E5,1.3913272E6,1.1132377E5,4.3903666E5,8.145045E5,9.071407E4,8.0446086E4,3.290244E5,-6.621544E3,2.9664712E5,1.1075255E6,1.343174E5,2.598038E5,3.737047E4,3.424663E5,7.090041E4,1.8764984E6,6.1624825E5,4.5593012E5,-9.081496E4,-1.2287221E5,3.0100312E4,4.561532E4,-9.060706E4,2.3772795E5,-2.096179E4],"categories":[],"categories_nodes":[],"categories_segments":[],"categories_sizes":[],"default_left":[1,1,1,1,1,1,1,1,1,1,1,1,1,1,1,1,1,1,1,1,1,1,1,1,1,1,0,0,1,1,0,1,1,0,1,1,1,1,1,1,1,0,1,1,1,1,1,0,0,1,1,0,0,0,0,0,0,0,0,0,0,0,0,0,0,0,0,0,0,0,0,0,0,0,0,0,0,0,0,0,0,0,0,0,0,0,0,0,0],"id":5,"left_children":[1,3,5,7,9,11,13,15,17,19,21,23,25,27,29,31,33,35,37,39,41,43,45,47,49,51,-1,-1,53,55,-1,57,59,-1,61,63,65,67,69,71,73,-1,75,77,79,81,83,-1,-1,85,87,-1,-1,-1,-1,-1,-1,-1,-1,-1,-1,-1,-1,-1,-1,-1,-1,-1,-1,-1,-1,-1,-1,-1,-1,-1,-1,-1,-1,-1,-1,-1,-1,-1,-1,-1,-1,-1,-1],"loss_changes":[1.0680682E13,3.8687736E12,6.075615E12,2.7862216E12,2.0004497E12,1.7348805E12,3.3313847E12,2.1428689E12,1.4638263E12,8.887215E11,3.7053446E12,5.9744086E11,8.8995267E11,2.5173615E12,1.437333E11,1.5635002E12,1.8857848E12,1.2953584E12,8.1285245E11,9.2121557E11,6.8511315E11,1.5594181E12,5.2511205E11,3.079285E11,5.730473E11,9.725831E10,0E0,0E0,2.8227834E12,7.3193095E10,0E0,1.9560525E12,6.7083436E11,0E0,6.123941E10,3.4055622E12,6.058211E11,1.0385152E12,1.4328227E11,1.5933722E11,4.330759E11,0E0,8.90696E10,1.6790684E10,5.1820836E11,5.810276E11,2.3324688E10,0E0,0E0,5.9636093E10,4.5435585E11,0E0,0E0,0E0,0E0,0E0,0E0,0E0,0E0,0E0,0E0,0E0,0E0,0E0,0E0,0E0,0E0,0E0,0E0,0E0,0E0,0E0,0E0,0E0,0E0,0E0,0E0,0E0,0E0,0E0,0E0,0E0,0E0,0E0,0E0,0E0,0E0,0E0,0E0],"parents":[2147483647,0,0,1,1,2,2,3,3,4,4,5,5,6,6,7,7,8,8,9,9,10,10,11,11,12,12,13,13,14,14,15,15,16,16,17,17,18,18,19,19,20,20,21,21,22,22,23,23,24,24,25,25,28,28,29,29,31,31,32,32,34,34,35,35,36,36,37,37,38,38,39,39,40,40,42,42,43,43,44,44,45,45,46,46,49,49,50,50],"right_children":[2,4,6,8,10,12,14,16,18,20,22,24,26,28,30,32,34,36,38,40,42,44,46,48,50,52,-1,-1,54,56,-1,58,60,-1,62,64,66,68,70,72,74,-1,76,78,80,82,84,-1,-1,86,88,-1,-1,-1,-1,-1,-1,-1,-1,-1,-1,-1,-1,-1,-1,-1,-1,-1,-1,-1,-1,-1,-1,-1,-1,-1,-1,-1,-1,-1,-1,-1,-1,-1,-1,-1,-1,-1,-1],"split_conditions":[3.5E0,3.5E0,2.006E3,2.5405E3,5.305E2,9.108E3,4.6E1,1.625E2,5.5E0,2.5E1,1.9115E3,1.235E2,1.933E3,3.5E0,5E-1,3.775E2,5E-1,2.711E3,5E-1,3.95E2,5E-1,2.36E2,7.5E0,1.406E3,1E0,5E-1,3.1878534E5,2.9513127E4,1.9255E3,5.65E2,-1.5203673E4,5E-1,3.5E0,3.1861075E5,9.15E1,2.0045E3,2.74525E4,7.347E3,3.2E1,4.5E0,6.525E2,-8.828422E4,1.9305E3,2.035E2,9.61E2,3.3926E4,9.64E2,1.5317489E5,-1.1099419E4,1.9195E3,5E-1,2.1778906E4,1.2147868E5,5.526051E5,1.6493048E5,8.670483E3,1.060015E5,3.4674125E4,1.740395E4,6.5819897E3,2.173693E4,-5.871069E3,5.5787816E4,5.3737535E4,4.173982E5,3.3397133E4,1.31711E5,2.4435136E5,2.7214223E4,2.4133826E4,9.870733E4,-1.9864633E3,8.899414E4,3.3225766E5,4.0295223E4,7.794114E4,1.1211141E4,1.027399E5,2.1270123E4,5.6294956E5,1.8487448E5,1.3677905E5,-2.724449E4,-3.6861664E4,9.030094E3,1.3684597E4,-2.718212E4,7.131839E4,-6.288537E3],"split_indices":[12,9,7,4,4,4,5,3,8,4,4,0,7,6,1,0,12,4,12,0,2,0,8,4,6,2,0,0,4,4,0,12,6,0,0,7,4,4,5,3,0,0,7,0,7,4,7,0,0,7,1,0,0,0,0,0,0,0,0,0,0,0,0,0,0,0,0,0,0,0,0,0,0,0,0,0,0,0,0,0,0,0,0,0,0,0,0,0,0],"split_type":[0,0,0,0,0,0,0,0,0,0,0,0,0,0,0,0,0,0,0,0,0,0,0,0,0,0,0,0,0,0,0,0,0,0,0,0,0,0,0,0,0,0,0,0,0,0,0,0,0,0,0,0,0,0,0,0,0,0,0,0,0,0,0,0,0,0,0,0,0,0,0,0,0,0,0,0,0,0,0,0,0,0,0,0,0,0,0,0,0],"sum_hessian":[5.236E3,5.053E3,1.83E2,5.012E3,4.1E1,1.65E2,1.8E1,4.814E3,1.98E2,2E1,2.1E1,1.58E2,7E0,1.1E1,7E0,4.806E3,8E0,1.78E2,2E1,8E0,1.2E1,6E0,1.5E1,1E1,1.48E2,4E0,3E0,2E0,9E0,6E0,1E0,3.267E3,1.539E3,3E0,5E0,1.4E1,1.64E2,1E1,1E1,6E0,2E0,5E0,7E0,2E0,4E0,1.2E1,3E0,9E0,1E0,1.2E1,1.36E2,2E0,2E0,5E0,4E0,1E0,5E0,7.75E2,2.492E3,1.203E3,3.36E2,2E0,3E0,1.2E1,2E0,1.59E2,5E0,7E0,3E0,6E0,4E0,4E0,2E0,1E0,1E0,3E0,4E0,1E0,1E0,2E0,2E0,1E1,2E0,2E0,1E0,8E0,4E0,1.29E2,7E0],"tree_param":{"num_deleted":"0","num_feature":"13","num_nodes":"89","size_leaf_vector":"0"}},{"base_weights":[5.4203754E4,4.895374E4,2.7766525E5,3.607229E4,9.87661E4,2.2034656E5,6.6420625E5,3.544953E4,6.59931E5,1.3450695E5,5.788471E4,-1.2896437E5,2.4259486E5,1.1112179E5,8.552259E5,3.0359271E4,9.63706E4,9.022024E5,2.7843975E5,1.8488173E5,6.945588E4,1.3087549E4,1.2721769E5,-2.2169644E5,6.857721E4,1.7934611E5,3.7758897E5,3.3218895E4,1.5198408E5,1.2196058E6,3.4830838E5,4.3381977E4,1.3352758E4,7.6937625E4,1.300844E5,1.9822078E5,-4.6224934E4,3.297736E4,1.8198969E5,-9.343777E3,1.0887976E5,4.6744122E5,1.1380174E5,1.6027662E5,7.4757E5,4.3470412E5,-3.003871E5,1.6373384E6,2.5609362E5,5.9091344E5,7.92775E4,3.655781E4,8.44545E4,-1.0635543E4,3.6008344E4,3.6781824E4,9.76495E4,1.5680628E5,7.739681E4,4.2134372E5,1.6398995E5,-6.7504766E4,1.5776612E5,1.405744E4,3.6645416E5,3.188086E5,1.37363E5,-7.454574E4,3.418776E4,4.6976234E4,2.7907788E5,5.7654275E5,-9.358391E4,8.6242516E4,2.672187E5,3.5046075E5,1.0549412E5,1.6153945E5,7.1584206E5,3.0898788E5,7.515256E4,-1.812625E3,1.0691175E5],"categories":[],"categories_nodes":[],"categories_segments":[],"categories_sizes":[],"default_left":[1,1,1,1,1,1,1,1,1,1,1,1,1,1,1,1,1,0,0,1,1,1,1,0,0,1,1,0,0,1,1,1,1,1,1,1,1,1,1,1,1,1,1,1,0,1,0,0,1,0,1,0,0,0,0,0,0,0,0,0,0,0,0,0,0,0,0,0,0,0,0,0,0,0,0,0,0,0,0,0,0,0,0],"id":6,"left_children":[1,3,5,7,9,11,13,15,17,19,21,23,25,27,29,31,33,-1,-1,35,37,39,41,-1,-1,43,45,-1,-1,47,49,51,53,55,57,59,61,63,65,67,69,71,73,75,-1,77,-1,-1,79,-1,81,-1,-1,-1,-1,-1,-1,-1,-1,-1,-1,-1,-1,-1,-1,-1,-1,-1,-1,-1,-1,-1,-1,-1,-1,-1,-1,-1,-1,-1,-1,-1,-1],"loss_changes":[6.130332E12,3.2804302E12,2.512367E12,1.557074E12,1.5278686E12,8.5507336E11,1.4897156E12,1.2576469E12,1.1848856E11,1.8222405E12,1.526448E12,1.434324E11,7.861017E11,1.0867704E10,1.6070161E12,8.306004E11,1.9505663E11,0E0,0E0,9.802277E11,1.0038449E12,6.456412E11,8.277378E11,0E0,0E0,6.3868345E11,1.3309837E12,0E0,0E0,1.995631E12,3.4476333E11,5.9252015E11,8.85694E11,1.6358048E11,1.4695766E11,2.2069327E12,8.878609E10,1.1746977E12,3.225539E11,6.95104E11,5.8743416E11,4.82416E11,7.676001E11,6.819232E11,0E0,2.111474E12,0E0,0E0,5.4909993E9,0E0,9.157251E9,0E0,0E0,0E0,0E0,0E0,0E0,0E0,0E0,0E0,0E0,0E0,0E0,0E0,0E0,0E0,0E0,0E0,0E0,0E0,0E0,0E0,0E0,0E0,0E0,0E0,0E0,0E0,0E0,0E0,0E0,0E0,0E0],"parents":[2147483647,0,0,1,1,2,2,3,3,4,4,5,5,6,6,7,7,8,8,9,9,10,10,11,11,12,12,13,13,14,14,15,15,16,16,19,19,20,20,21,21,22,22,25,25,26,26,29,29,30,30,31,31,32,32,33,33,34,34,35,35,36,36,37,37,38,38,39,39,40,40,41,41,42,42,43,43,45,45,48,48,50,50],"right_children":[2,4,6,8,10,12,14,16,18,20,22,24,26,28,30,32,34,-1,-1,36,38,40,42,-1,-1,44,46,-1,-1,48,50,52,54,56,58,60,62,64,66,68,70,72,74,76,-1,78,-1,-1,80,-1,82,-1,-1,-1,-1,-1,-1,-1,-1,-1,-1,-1,-1,-1,-1,-1,-1,-1,-1,-1,-1,-1,-1,-1,-1,-1,-1,-1,-1,-1,-1,-1,-1],"split_conditions":[3.5E0,1.5E0,1.9945E3,1.35E1,2.365E2,3.5E0,3.5E0,4.25E1,2.635E2,1.7E1,3.5E0,8.5E0,5E-1,1.13E2,2.45E1,5E-1,5.15E1,2.7066072E5,8.353193E4,2.0215E3,4.5E0,3.75E1,1.04E2,-6.650894E4,2.0573164E4,2.4841E4,4.295E2,9.965669E3,4.5595227E4,3.5915E3,1.9995E3,8.06E2,2.95E1,1.931E3,1.15E1,9.25E1,8.95E1,5.75E1,1E0,5E-1,5E-1,5E-1,5.5E0,2.5E1,2.2427102E5,2.36E2,-9.011613E4,4.9120153E5,5.55E1,1.7727403E5,1.535E2,1.0967343E4,2.5336352E4,-3.190663E3,1.0802504E4,1.1034548E4,2.9294852E4,4.7041887E4,2.3219045E4,1.2640312E5,4.919699E4,-2.025143E4,4.732984E4,4.2172324E3,1.0993625E5,9.564258E4,4.1208902E4,-2.2363723E4,1.0256329E4,1.4092871E4,8.372337E4,1.7296283E5,-2.8075174E4,2.5872756E4,8.016561E4,1.0513823E5,3.1648236E4,4.8461836E4,2.1475262E5,9.269637E4,2.254577E4,-5.4378754E2,3.2073525E4],"split_indices":[9,9,7,8,0,8,6,5,0,5,6,9,11,0,5,5,5,0,0,7,8,5,4,0,0,4,0,0,0,4,7,4,5,7,3,0,3,3,12,2,10,10,8,4,0,0,0,0,0,0,0,0,0,0,0,0,0,0,0,0,0,0,0,0,0,0,0,0,0,0,0,0,0,0,0,0,0,0,0,0,0,0,0],"split_type":[0,0,0,0,0,0,0,0,0,0,0,0,0,0,0,0,0,0,0,0,0,0,0,0,0,0,0,0,0,0,0,0,0,0,0,0,0,0,0,0,0,0,0,0,0,0,0,0,0,0,0,0,0,0,0,0,0,0,0,0,0,0,0,0,0,0,0,0,0,0,0,0,0,0,0,0,0,0,0,0,0,0,0],"sum_hessian":[5.236E3,5.117E3,1.19E2,4.067E3,1.05E3,1.05E2,1.4E1,4.064E3,3E0,5.59E2,4.91E2,6E0,9.9E1,4E0,1E1,3.752E3,3.12E2,1E0,2E0,3.14E2,2.45E2,2.99E2,1.92E2,4E0,2E0,6.9E1,3E1,2E0,2E0,5E0,5E0,2.124E3,1.628E3,2E2,1.12E2,2.97E2,1.7E1,1.86E2,5.9E1,2.43E2,5.6E1,6E0,1.86E2,6.8E1,1E0,2.8E1,2E0,3E0,2E0,2E0,3E0,1.823E3,3.01E2,7.91E2,8.37E2,6.9E1,1.31E2,7.3E1,3.9E1,3.8E1,2.59E2,1.6E1,1E0,1.77E2,9E0,1.3E1,4.6E1,9.7E1,1.46E2,4.2E1,1.4E1,5E0,1E0,1.59E2,2.7E1,1.4E1,5.4E1,1.5E1,1.3E1,1E0,1E0,1E0,2E0],"tree_param":{"num_deleted":"0","num_feature":"13","num_nodes":"83","size_leaf_vector":"0"}},{"base_weights":[3.845018E4,3.3328375E4,1.7892381E5,2.2408727E4,6.2734375E4,1.3908583E5,5.1756494E5,2.148319E4,4.453555E5,1.1956635E5,3.794611E4,1.16786586E5,3.2766228E5,7.1160756E5,1.6180534E5,6.88776E4,1.651256E4,7.7099506E5,9.5772766E4,8.7923234E4,2.395973E5,-3.2544746E3,6.681435E4,2.2924477E5,9.246099E4,4.3781997E5,1.0774846E5,6.0181375E4,8.358747E5,1.1260273E4,2.4988034E5,1.3348344E5,1.5965717E4,2.2001234E4,-5.783685E3,1.7130375E4,1.11150766E5,6.987375E4,2.6608897E5,1.535752E5,5.560377E5,4.3411695E4,-1.9921234E4,3.4519194E5,6.469908E4,2.849424E5,-6.167379E4,6.0171324E4,2.3304252E5,1.472512E5,5.828234E5,2.3354222E5,-4.4982406E4,1.0399896E6,2.6970478E5,5.746803E4,-6.36815E4,8.871213E4,3.9046784E5,7.3150894E3,2.4478023E5,-2.0141759E3,2.5798393E4,-7.590672E3,2.3208833E5,-2.2873146E4,8.417547E4,1.7273777E5,6.1070425E5,3.6782716E5,1.5473394E4,1.5017609E4,6.6324056E5,2.4453629E4,3.0262294E5,5.800748E4,-2.6825592E4,5.568714E4,1.2881909E5,1.6621133E5,4.7194534E5,-6.765664E4,-1.8871188E4,7.346945E4,-2.8732478E5,1.720639E5,7.8728594E5,2.6769447E5,-2.2275791E4,6.992985E5,1.9442367E5,4.1919938E4,-8.7923164E4,4.2286466E5,1.2022668E6,3.1492428E5,6.7023125E4,9.918953E3,7.628309E4],"categories":[],"categories_nodes":[],"categories_segments":[],"categories_sizes":[],"default_left":[1,1,1,1,1,1,1,1,1,1,1,1,1,1,1,1,1,0,1,1,1,1,1,1,1,1,1,0,1,1,0,1,1,1,1,0,0,1,1,1,1,1,1,0,1,1,1,1,1,1,1,0,1,1,1,1,0,0,0,0,0,0,0,0,0,0,0,0,0,0,0,0,0,0,0,0,0,0,0,0,0,0,0,0,0,0,0,0,0,0,0,0,0,0,0,0,0,0,0],"id":7,"left_children":[1,3,5,7,9,11,13,15,17,19,21,23,25,27,29,31,33,-1,35,37,39,41,43,45,47,49,51,-1,53,55,-1,57,59,61,63,-1,-1,65,67,69,71,73,75,-1,77,79,81,83,85,87,89,-1,91,93,95,97,-1,-1,-1,-1,-1,-1,-1,-1,-1,-1,-1,-1,-1,-1,-1,-1,-1,-1,-1,-1,-1,-1,-1,-1,-1,-1,-1,-1,-1,-1,-1,-1,-1,-1,-1,-1,-1,-1,-1,-1,-1,-1,-1],"loss_changes":[3.7619452E12,1.6214492E12,2.410317E12,1.4337219E12,1.9226553E12,6.597816E11,1.1964761E12,8.6579714E11,8.368635E11,1.5551677E12,1.1348939E12,3.8914556E11,3.6465397E11,9.2110586E11,1.0326034E11,1.1908963E12,4.0788682E11,0E0,4.14276E9,1.0426214E12,2.2556007E12,3.073077E11,3.0800924E11,4.3886392E11,5.5339385E11,3.7764674E11,1.4499342E11,0E0,8.751478E11,1.7511215E10,0E0,1.771728E12,3.802315E11,2.4389471E11,2.8502072E11,0E0,0E0,4.0118387E11,8.596158E11,2.0359208E12,1.0340202E12,5.0367077E11,1.5812798E11,0E0,3.1526407E11,4.1002454E11,3.64544E6,4.970776E11,6.418673E11,1.0805502E11,1.8071211E11,0E0,1.8612347E10,1.9262027E11,1.5553462E10,1.9272684E9,0E0,0E0,0E0,0E0,0E0,0E0,0E0,0E0,0E0,0E0,0E0,0E0,0E0,0E0,0E0,0E0,0E0,0E0,0E0,0E0,0E0,0E0,0E0,0E0,0E0,0E0,0E0,0E0,0E0,0E0,0E0,0E0,0E0,0E0,0E0,0E0,0E0,0E0,0E0,0E0,0E0,0E0,0E0],"parents":[2147483647,0,0,1,1,2,2,3,3,4,4,5,5,6,6,7,7,8,8,9,9,10,10,11,11,12,12,13,13,14,14,15,15,16,16,18,18,19,19,20,20,21,21,22,22,23,23,24,24,25,25,26,26,28,28,29,29,31,31,32,32,33,33,34,34,37,37,38,38,39,39,40,40,41,41,42,42,44,44,45,45,46,46,47,47,48,48,49,49,50,50,52,52,53,53,54,54,55,55],"right_children":[2,4,6,8,10,12,14,16,18,20,22,24,26,28,30,32,34,-1,36,38,40,42,44,46,48,50,52,-1,54,56,-1,58,60,62,64,-1,-1,66,68,70,72,74,76,-1,78,80,82,84,86,88,90,-1,92,94,96,98,-1,-1,-1,-1,-1,-1,-1,-1,-1,-1,-1,-1,-1,-1,-1,-1,-1,-1,-1,-1,-1,-1,-1,-1,-1,-1,-1,-1,-1,-1,-1,-1,-1,-1,-1,-1,-1,-1,-1,-1,-1,-1,-1],"split_conditions":[3.5E0,3.5E0,2.006E3,1.525E2,5E-1,5.138E3,4.6E1,9.25E1,1E0,2.5E0,1.903E3,1.675E2,5E-1,3.5E0,3.05E1,1E0,5E-1,2.3129853E5,6.45E1,3.365E3,1.55E1,1E0,1.9095E3,1.215E3,3.9E1,3.5E0,5.7E1,1.8054414E4,2.519E3,5E-1,7.496411E4,1.5E0,7.4E1,1.5E0,4.5E0,5.139113E3,3.334523E4,1.77E2,5.5E0,4.5E0,4.5E0,2.032E3,1.6E2,1.03557586E5,2.0045E3,3.56E2,1.435E2,6.7E1,4.82E2,2.595E2,6.5E0,7.006267E4,5E-1,2.5E0,1.33E2,6.5E1,-1.9104451E4,2.661364E4,1.1714036E5,2.1945269E3,7.343407E4,-6.042528E2,7.739518E3,-2.2772017E3,6.96265E4,-6.8619443E3,2.5252643E4,5.1821332E4,1.8321128E5,1.1034815E5,4.642018E3,4.505283E3,1.9897217E5,7.336089E3,9.078688E4,1.7402244E4,-8.0476777E3,1.6706143E4,3.864573E4,4.9863402E4,1.4158361E5,-2.0296992E4,-5.6613564E3,2.2040836E4,-8.619744E4,5.1619176E4,2.361858E5,8.030834E4,-6.682738E3,2.0978956E5,5.8327105E4,1.2575981E4,-2.6376951E4,1.268594E5,3.6068003E5,9.447729E4,2.0106938E4,2.975686E3,2.288493E4],"split_indices":[12,8,7,3,12,4,5,0,12,9,7,0,10,6,3,3,10,0,0,4,5,6,7,4,3,9,5,0,4,1,0,9,3,8,10,0,0,0,8,8,8,4,0,0,7,4,0,5,0,0,9,0,2,9,0,0,0,0,0,0,0,0,0,0,0,0,0,0,0,0,0,0,0,0,0,0,0,0,0,0,0,0,0,0,0,0,0,0,0,0,0,0,0,0,0,0,0,0,0],"split_type":[0,0,0,0,0,0,0,0,0,0,0,0,0,0,0,0,0,0,0,0,0,0,0,0,0,0,0,0,0,0,0,0,0,0,0,0,0,0,0,0,0,0,0,0,0,0,0,0,0,0,0,0,0,0,0,0,0,0,0,0,0,0,0,0,0,0,0,0,0,0,0,0,0,0,0,0,0,0,0,0,0,0,0,0,0,0,0,0,0,0,0,0,0,0,0,0,0,0,0],"sum_hessian":[5.236E3,5.053E3,1.83E2,3.686E3,1.367E3,1.65E2,1.8E1,3.679E3,7E0,4.14E2,9.53E2,1.49E2,1.6E1,1.1E1,7E0,3.48E2,3.331E3,3E0,4E0,3.29E2,8.5E1,3.93E2,5.6E2,2.5E1,1.24E2,1E1,6E0,2E0,9E0,3E0,4E0,1.56E2,1.92E2,2.673E3,6.58E2,1E0,3E0,3E2,2.9E1,6.8E1,1.7E1,1.03E2,2.9E2,3E0,5.57E2,2.1E1,4E0,1.02E2,2.2E1,4E0,6E0,3E0,3E0,6E0,3E0,2E0,1E0,1.34E2,2.2E1,1.86E2,6E0,3.65E2,2.308E3,6.54E2,4E0,4E1,2.6E2,2.4E1,5E0,2.6E1,4.2E1,3E0,1.4E1,9.7E1,6E0,2.3E1,2.67E2,4.9E2,6.7E1,1.4E1,7E0,3E0,1E0,9.9E1,3E0,2.1E1,1E0,2E0,2E0,4E0,2E0,1E0,2E0,2E0,4E0,2E0,1E0,1E0,1E0],"tree_param":{"num_deleted":"0","num_feature":"13","num_nodes":"99","size_leaf_vector":"0"}},{"base_weights":[2.7467146E4,2.3607246E4,1.3333928E5,1.8595092E4,5.8457824E4,1.021019E5,3.9923747E5,1.7998309E4,3.4547172E5,5.206773E4,2.6289097E5,8.255596E4,2.4065942E5,5.498068E5,1.23478766E5,1.6439398E4,1.0331315E5,5.975212E5,7.47378E4,4.9959832E4,6.752664E5,8.8667375E5,9.051458E4,7.1640266E4,2.9063562E5,2.828329E5,1.2572812E3,7.205503E5,1.6665583E5,9.571227E3,1.8990903E5,2.61961E4,5.161561E3,8.450698E4,3.6474312E5,1.45608125E4,8.614184E4,4.696385E4,2.4680384E5,3.8600925E5,1.1943336E6,1.5606031E5,-1.451377E5,8.252809E4,-1.1968595E5,4.0456225E5,-1.9646206E5,1.4354412E5,3.906958E5,-9.7585875E4,1.4889338E5,8.3476406E5,2.5193945E5,2.8745225E5,6.4593656E4,4.8847824E4,-5.412928E4,4.0374812E4,-2.9213928E3,3.2148645E3,1.2180693E5,4.254557E4,1.534227E5,6.880514E5,1.1190322E5,5.784825E4,-4.5401772E3,3.720184E5,7.222852E4,2.053477E5,-2.1769419E5,-1.9287248E5,-9.666875E2,1.9036438E5,5.846865E4,-1.532314E5,5.756611E4,2.4356923E5,-4.2379562E4,3.5631938E4,4.306248E5,3.3829175E5,9.9842725E5,8.431109E3,6.4840625E4],"categories":[],"categories_nodes":[],"categories_segments":[],"categories_sizes":[],"default_left":[1,1,1,1,1,1,1,1,1,1,1,1,1,1,1,1,1,0,1,1,0,1,1,1,1,1,1,1,1,1,0,1,1,1,1,0,0,1,1,0,0,1,1,1,1,0,0,1,1,0,0,1,0,0,0,1,0,0,0,0,0,0,0,0,0,0,0,0,0,0,0,0,0,0,0,0,0,0,0,0,0,0,0,0,0],"id":8,"left_children":[1,3,5,7,9,11,13,15,17,19,21,23,25,27,29,31,33,-1,35,37,-1,39,41,43,45,47,49,51,53,55,-1,57,59,61,63,-1,-1,65,67,-1,-1,69,71,73,75,-1,-1,77,79,-1,-1,81,-1,-1,-1,83,-1,-1,-1,-1,-1,-1,-1,-1,-1,-1,-1,-1,-1,-1,-1,-1,-1,-1,-1,-1,-1,-1,-1,-1,-1,-1,-1,-1,-1],"loss_changes":[2.136983E12,8.8172816E11,1.4875343E12,8.560125E11,8.158422E11,4.2969924E11,7.2100584E11,5.8522206E11,5.0124934E11,7.767792E11,1.962726E12,3.13065E11,2.0157288E11,6.649626E11,5.8717594E10,4.768642E11,3.5758E11,0E0,2.1770076E9,3.5168924E11,0E0,1.5511375E11,2.6978628E11,3.0359847E11,4.679349E11,1.9932748E11,7.2901165E10,2.1786421E11,4.307614E10,1.2651855E10,0E0,9.595781E11,4.564795E11,2.1035762E11,3.3173098E11,0E0,0E0,3.411015E11,1.69864E11,0E0,0E0,2.8418104E11,2.734143E10,3.3653005E11,5.6388952E10,0E0,0E0,1.7769567E11,1.1225203E11,0E0,0E0,1.4976575E11,0E0,0E0,0E0,1.3924511E9,0E0,0E0,0E0,0E0,0E0,0E0,0E0,0E0,0E0,0E0,0E0,0E0,0E0,0E0,0E0,0E0,0E0,0E0,0E0,0E0,0E0,0E0,0E0,0E0,0E0,0E0,0E0,0E0,0E0],"parents":[2147483647,0,0,1,1,2,2,3,3,4,4,5,5,6,6,7,7,8,8,9,9,10,10,11,11,12,12,13,13,14,14,15,15,16,16,18,18,19,19,21,21,22,22,23,23,24,24,25,25,26,26,27,27,28,28,29,29,31,31,32,32,33,33,34,34,37,37,38,38,41,41,42,42,43,43,44,44,47,47,48,48,51,51,55,55],"right_children":[2,4,6,8,10,12,14,16,18,20,22,24,26,28,30,32,34,-1,36,38,-1,40,42,44,46,48,50,52,54,56,-1,58,60,62,64,-1,-1,66,68,-1,-1,70,72,74,76,-1,-1,78,80,-1,-1,82,-1,-1,-1,84,-1,-1,-1,-1,-1,-1,-1,-1,-1,-1,-1,-1,-1,-1,-1,-1,-1,-1,-1,-1,-1,-1,-1,-1,-1,-1,-1,-1,-1],"split_conditions":[3.5E0,1.0925E3,2.006E3,1.525E2,3.5E0,4.13E3,4.6E1,5.95E1,1E0,2.1E1,1.9115E3,1.05E1,5E-1,5.5E0,3.05E1,5E-1,3.5E0,1.7925636E5,6.45E1,2.3005E4,2.0257992E5,1.355E3,7.5E0,7.5E0,2.5E0,3.5E0,1.73585E4,3.847E3,9.15E1,5E-1,5.697271E4,3.585E2,5.5E0,1.9855E3,9.56E2,4.368244E3,2.5842555E4,5.715E2,5E-1,1.1580278E5,3.583001E5,2.5E0,9.64E2,1.675E2,5.475E2,1.2136868E5,-5.893862E4,3.04E2,2.335E2,-2.9275764E4,4.4668016E4,3E0,7.5581836E4,8.623568E4,1.9378098E4,6.5E1,-1.6238785E4,1.2112444E4,-8.764179E2,9.644594E2,3.6542082E4,1.2763672E4,4.6026812E4,2.0641542E5,3.357097E4,1.7354477E4,-1.3620532E3,1.1160552E5,2.1668559E4,6.1604312E4,-6.5308258E4,-5.7861746E4,-2.9000626E2,5.7109316E4,1.7540596E4,-4.596942E4,1.7269834E4,7.307077E4,-1.2713869E4,1.0689582E4,1.29187445E5,1.0148753E5,2.995282E5,2.529333E3,1.9452188E4],"split_indices":[12,4,7,3,9,4,5,5,12,8,4,8,1,8,3,5,9,0,0,4,0,4,8,12,3,9,4,4,0,1,0,0,8,7,7,0,0,0,12,0,0,12,7,0,0,0,0,0,0,0,0,9,0,0,0,0,0,0,0,0,0,0,0,0,0,0,0,0,0,0,0,0,0,0,0,0,0,0,0,0,0,0,0,0,0],"split_type":[0,0,0,0,0,0,0,0,0,0,0,0,0,0,0,0,0,0,0,0,0,0,0,0,0,0,0,0,0,0,0,0,0,0,0,0,0,0,0,0,0,0,0,0,0,0,0,0,0,0,0,0,0,0,0,0,0,0,0,0,0,0,0,0,0,0,0,0,0,0,0,0,0,0,0,0,0,0,0,0,0,0,0,0,0],"sum_hessian":[5.236E3,5.053E3,1.83E2,4.419E3,6.34E2,1.65E2,1.8E1,4.412E3,7E0,6.16E2,1.8E1,1.46E2,1.9E1,1.1E1,7E0,4.334E3,7.8E1,3E0,4E0,6.15E2,1E0,3E0,1.5E1,1.4E2,6E0,1.6E1,3E0,7E0,4E0,3E0,4E0,2.323E3,2.011E3,7.4E1,4E0,1E0,3E0,6.07E2,8E0,2E0,1E0,1.2E1,3E0,1.33E2,7E0,5E0,1E0,8E0,8E0,2E0,1E0,5E0,2E0,1E0,3E0,2E0,1E0,1.562E3,7.61E2,1.979E3,3.2E1,4.7E1,2.7E1,1E0,3E0,5.01E2,1.06E2,4E0,4E0,1.1E1,1E0,2E0,1E0,2.3E1,1.1E2,6E0,1E0,5E0,3E0,1E0,7E0,2E0,3E0,1E0,1E0],"tree_param":{"num_deleted":"0","num_feature":"13","num_nodes":"85","size_leaf_vector":"0"}},{"base_weights":[1.9664277E4,1.3803569E4,6.4512207E4,1.9993712E3,2.2306408E4,5.7371625E4,5.9020675E5,4.643139E4,-1.215755E3,2.1477732E4,2.4249238E5,4.516336E4,1.5852866E5,-9.997453E4,7.030861E5,2.2713286E5,3.7774795E3,-4.6132153E3,3.536999E4,4.9126055E4,1.5418735E4,-3.9197938E4,3.688165E5,-8.7977375E4,5.494501E4,2.3491375E5,5.8239266E4,2.5278967E5,8.326468E5,6.5861734E4,3.491415E5,-1.1972627E4,4.1233588E5,-2.0628232E4,1.7966844E3,1.820155E5,4.1606235E3,7.057996E4,9.694802E3,-2.4008511E5,1.6225795E4,3.9214457E4,-1.3721756E5,4.4921903E5,1.1187346E5,-2.2077023E4,-2.4173484E5,2.7884178E5,4.7907082E4,3.54384E5,1.0936755E5,1.7357675E5,-2.3414375E3,9.1864125E5,2.443345E5,-2.5230416E4,1.3453189E5,4.7285772E5,-7.836353E4,-2.0965418E4,2.1808848E5,3.2498604E4,7.759239E5,3.9964543E4,-3.592184E4,-1.8264123E4,1.4870028E4,5.323699E5,6.4784023E3,1.6792021E4,-9.2115375E4,1.2128623E5,4.427347E4,-7.584875E4,2.9178365E4,-3.1410794E5,1.0202592E5,7.6713423E3,3.7874652E4,1.23766875E4,4.6445E4,-1.0879213E5,7.967711E4,-1.5323033E5,-5.6339E5,1.9432089E5,5.521516E5,1.13120836E5,3.4939082E4,5.3809105E4,5.0018734E5,7.795134E4,3.3742962E5,4.0397535E4,2.9867647E5,7.296957E4,-1.2442915E5],"categories":[],"categories_nodes":[],"categories_segments":[],"categories_sizes":[],"default_left":[1,1,1,1,1,1,1,1,1,1,1,1,1,0,1,1,1,1,1,1,1,1,1,1,1,1,1,0,1,1,1,1,1,1,1,1,1,1,1,1,1,1,0,0,0,1,1,1,1,1,1,1,1,0,0,0,0,0,0,0,0,0,0,0,0,0,0,0,0,0,0,0,0,0,0,0,0,0,0,0,0,0,0,0,0,0,0,0,0,0,0,0,0,0,0,0,0],"id":9,"left_children":[1,3,5,7,9,11,13,15,17,19,21,23,25,-1,27,29,31,33,35,37,39,41,43,45,47,49,51,-1,53,55,57,59,61,63,65,67,69,71,73,75,77,79,-1,-1,-1,81,83,85,87,89,91,93,95,-1,-1,-1,-1,-1,-1,-1,-1,-1,-1,-1,-1,-1,-1,-1,-1,-1,-1,-1,-1,-1,-1,-1,-1,-1,-1,-1,-1,-1,-1,-1,-1,-1,-1,-1,-1,-1,-1,-1,-1,-1,-1,-1,-1],"loss_changes":[1.3756059E12,4.649658E11,2.2371668E12,2.773371E11,4.8616427E11,7.313414E11,6.935489E11,1.00884074E12,2.2526796E11,4.4886917E11,3.7029963E11,7.015838E11,4.7659824E11,0E0,1.9790037E11,4.6891676E11,6.9346447E11,1.7023848E11,7.040565E11,4.0706572E11,4.581688E11,3.6124725E10,9.435644E10,3.695721E11,7.7295046E11,5.01207E11,2.0303597E11,0E0,2.850213E10,7.845805E10,7.775052E11,2.1973701E11,5.2720075E11,4.4068304E11,3.1105188E11,1.6570563E12,1.5720766E11,4.1080822E11,2.872177E11,2.093153E11,4.0658095E11,7.319552E6,0E0,0E0,0E0,2.46906E11,2.2681885E11,2.3921125E11,4.0620838E11,7.619323E11,1.0982895E11,1.54541E11,1.9297052E11,0E0,0E0,0E0,0E0,0E0,0E0,0E0,0E0,0E0,0E0,0E0,0E0,0E0,0E0,0E0,0E0,0E0,0E0,0E0,0E0,0E0,0E0,0E0,0E0,0E0,0E0,0E0,0E0,0E0,0E0,0E0,0E0,0E0,0E0,0E0,0E0,0E0,0E0,0E0,0E0,0E0,0E0,0E0,0E0],"parents":[2147483647,0,0,1,1,2,2,3,3,4,4,5,5,6,6,7,7,8,8,9,9,10,10,11,11,12,12,14,14,15,15,16,16,17,17,18,18,19,19,20,20,21,21,22,22,23,23,24,24,25,25,26,26,28,28,29,29,30,30,31,31,32,32,33,33,34,34,35,35,36,36,37,37,38,38,39,39,40,40,41,41,45,45,46,46,47,47,48,48,49,49,50,50,51,51,52,52],"right_children":[2,4,6,8,10,12,14,16,18,20,22,24,26,-1,28,30,32,34,36,38,40,42,44,46,48,50,52,-1,54,56,58,60,62,64,66,68,70,72,74,76,78,80,-1,-1,-1,82,84,86,88,90,92,94,96,-1,-1,-1,-1,-1,-1,-1,-1,-1,-1,-1,-1,-1,-1,-1,-1,-1,-1,-1,-1,-1,-1,-1,-1,-1,-1,-1,-1,-1,-1,-1,-1,-1,-1,-1,-1,-1,-1,-1,-1,-1,-1,-1,-1],"split_conditions":[4.5E0,2.5E0,2.0185E3,7.75E1,1.5E2,4.5E0,5E-1,5E-1,1.95E1,1.575E2,1.315E2,1.295E2,2.96E2,-2.9992361E4,2.5E0,5.15E1,5E-1,1.5E0,2.05E1,6.5E0,1.585E2,2.765E2,2.255E2,1.19E2,1.395E2,5E0,2.37E2,7.583691E4,4.5E0,3.25E1,1E0,8.15E1,2.0185E3,5E-1,1.8955E3,7E0,1.5E0,2.5E1,1.05E1,1.6E1,3.5E0,6.45E1,-4.116527E4,1.3476572E5,3.356204E4,7.125E2,2.0095E3,7E0,1E0,2.5E0,7.75E1,1.38E2,5.5E0,2.7559238E5,7.330035E4,-7.569125E3,4.035957E4,1.4185733E5,-2.350906E4,-6.2896255E3,6.5426547E4,9.749581E3,2.3277717E5,1.1989363E4,-1.0776553E4,-5.4792373E3,4.461009E3,1.5971097E5,1.9435208E3,5.0376064E3,-2.7634613E4,3.638587E4,1.3282041E4,-2.2754625E4,8.75351E3,-9.423238E4,3.0607777E4,2.3014028E3,1.1362396E4,3.7130063E3,1.3933501E4,-3.263764E4,2.3903133E4,-4.59691E4,-1.69017E5,5.829627E4,1.656455E5,3.3936254E4,1.0481725E4,1.6142732E4,1.500562E5,2.3385404E4,1.0122889E5,1.2119261E4,8.9602945E4,2.1890871E4,-3.7328746E4],"split_indices":[8,8,7,0,3,12,2,8,3,0,0,0,0,0,9,0,1,8,3,3,0,3,0,0,0,3,4,0,12,0,6,3,7,9,7,5,9,4,3,3,6,0,0,0,0,4,7,8,6,6,5,4,9,0,0,0,0,0,0,0,0,0,0,0,0,0,0,0,0,0,0,0,0,0,0,0,0,0,0,0,0,0,0,0,0,0,0,0,0,0,0,0,0,0,0,0,0],"split_type":[0,0,0,0,0,0,0,0,0,0,0,0,0,0,0,0,0,0,0,0,0,0,0,0,0,0,0,0,0,0,0,0,0,0,0,0,0,0,0,0,0,0,0,0,0,0,0,0,0,0,0,0,0,0,0,0,0,0,0,0,0,0,0,0,0,0,0,0,0,0,0,0,0,0,0,0,0,0,0,0,0,0,0,0,0,0,0,0,0,0,0,0,0,0,0,0,0],"sum_hessian":[5.236E3,4.632E3,6.04E2,1.94E3,2.692E3,5.97E2,7E0,1.3E2,1.81E3,2.683E3,9E0,5.34E2,6.3E1,1E0,6E0,2.4E1,1.06E2,1.657E3,1.53E2,4.81E2,2.202E3,3E0,6E0,3.6E1,4.98E2,3.5E1,2.8E1,2E0,4E0,1.1E1,1.3E1,1.03E2,3E0,4.73E2,1.184E3,2.6E1,1.27E2,3.11E2,1.7E2,6E0,2.196E3,2E0,1E0,4E0,2E0,2.6E1,1E1,1.4E1,4.84E2,1.7E1,1.8E1,9E0,1.9E1,3E0,1E0,5E0,6E0,1E1,3E0,1E2,3E0,2E0,1E0,9.5E1,3.78E2,4.67E2,7.17E2,8E0,1.8E1,1.13E2,1.4E1,1.05E2,2.06E2,3.1E1,1.39E2,5E0,1E0,1.575E3,6.21E2,1E0,1E0,1.4E1,1.2E1,9E0,1E0,1.2E1,2E0,7.9E1,4.05E2,6E0,1.1E1,1.7E1,1E0,5E0,4E0,1.2E1,7E0],"tree_param":{"num_deleted":"0","num_feature":"13","num_nodes":"97","size_leaf_vector":"0"}}]},"name":"gbtree"},"learner_model_param":{"base_score":"5E-1","boost_from_average":"1","num_class":"0","num_feature":"13","num_target":"1"},"objective":{"name":"reg:squarederror","reg_loss_param":{"scale_pos_weight":"1"}}},"version":[1,7,6]}